{"learner":{"attributes":{"scikit_learn":"{\"_estimator_type\": \"regressor\"}"},"feature_names":["dayofweek","quarter","month","year","lag1","lag2","lag3"],"feature_types":["int","int","int","int","float","float","float"],"gradient_booster":{"model":{"gbtree_model_param":{"num_parallel_tree":"1","num_trees":"500"},"iteration_indptr":[0,1,2,3,4,5,6,7,8,9,10,11,12,13,14,15,16,17,18,19,20,21,22,23,24,25,26,27,28,29,30,31,32,33,34,35,36,37,38,39,40,41,42,43,44,45,46,47,48,49,50,51,52,53,54,55,56,57,58,59,60,61,62,63,64,65,66,67,68,69,70,71,72,73,74,75,76,77,78,79,80,81,82,83,84,85,86,87,88,89,90,91,92,93,94,95,96,97,98,99,100,101,102,103,104,105,106,107,108,109,110,111,112,113,114,115,116,117,118,119,120,121,122,123,124,125,126,127,128,129,130,131,132,133,134,135,136,137,138,139,140,141,142,143,144,145,146,147,148,149,150,151,152,153,154,155,156,157,158,159,160,161,162,163,164,165,166,167,168,169,170,171,172,173,174,175,176,177,178,179,180,181,182,183,184,185,186,187,188,189,190,191,192,193,194,195,196,197,198,199,200,201,202,203,204,205,206,207,208,209,210,211,212,213,214,215,216,217,218,219,220,221,222,223,224,225,226,227,228,229,230,231,232,233,234,235,236,237,238,239,240,241,242,243,244,245,246,247,248,249,250,251,252,253,254,255,256,257,258,259,260,261,262,263,264,265,266,267,268,269,270,271,272,273,274,275,276,277,278,279,280,281,282,283,284,285,286,287,288,289,290,291,292,293,294,295,296,297,298,299,300,301,302,303,304,305,306,307,308,309,310,311,312,313,314,315,316,317,318,319,320,321,322,323,324,325,326,327,328,329,330,331,332,333,334,335,336,337,338,339,340,341,342,343,344,345,346,347,348,349,350,351,352,353,354,355,356,357,358,359,360,361,362,363,364,365,366,367,368,369,370,371,372,373,374,375,376,377,378,379,380,381,382,383,384,385,386,387,388,389,390,391,392,393,394,395,396,397,398,399,400,401,402,403,404,405,406,407,408,409,410,411,412,413,414,415,416,417,418,419,420,421,422,423,424,425,426,427,428,429,430,431,432,433,434,435,436,437,438,439,440,441,442,443,444,445,446,447,448,449,450,451,452,453,454,455,456,457,458,459,460,461,462,463,464,465,466,467,468,469,470,471,472,473,474,475,476,477,478,479,480,481,482,483,484,485,486,487,488,489,490,491,492,493,494,495,496,497,498,499,500],"tree_info":[0,0,0,0,0,0,0,0,0,0,0,0,0,0,0,0,0,0,0,0,0,0,0,0,0,0,0,0,0,0,0,0,0,0,0,0,0,0,0,0,0,0,0,0,0,0,0,0,0,0,0,0,0,0,0,0,0,0,0,0,0,0,0,0,0,0,0,0,0,0,0,0,0,0,0,0,0,0,0,0,0,0,0,0,0,0,0,0,0,0,0,0,0,0,0,0,0,0,0,0,0,0,0,0,0,0,0,0,0,0,0,0,0,0,0,0,0,0,0,0,0,0,0,0,0,0,0,0,0,0,0,0,0,0,0,0,0,0,0,0,0,0,0,0,0,0,0,0,0,0,0,0,0,0,0,0,0,0,0,0,0,0,0,0,0,0,0,0,0,0,0,0,0,0,0,0,0,0,0,0,0,0,0,0,0,0,0,0,0,0,0,0,0,0,0,0,0,0,0,0,0,0,0,0,0,0,0,0,0,0,0,0,0,0,0,0,0,0,0,0,0,0,0,0,0,0,0,0,0,0,0,0,0,0,0,0,0,0,0,0,0,0,0,0,0,0,0,0,0,0,0,0,0,0,0,0,0,0,0,0,0,0,0,0,0,0,0,0,0,0,0,0,0,0,0,0,0,0,0,0,0,0,0,0,0,0,0,0,0,0,0,0,0,0,0,0,0,0,0,0,0,0,0,0,0,0,0,0,0,0,0,0,0,0,0,0,0,0,0,0,0,0,0,0,0,0,0,0,0,0,0,0,0,0,0,0,0,0,0,0,0,0,0,0,0,0,0,0,0,0,0,0,0,0,0,0,0,0,0,0,0,0,0,0,0,0,0,0,0,0,0,0,0,0,0,0,0,0,0,0,0,0,0,0,0,0,0,0,0,0,0,0,0,0,0,0,0,0,0,0,0,0,0,0,0,0,0,0,0,0,0,0,0,0,0,0,0,0,0,0,0,0,0,0,0,0,0,0,0,0,0,0,0,0,0,0,0,0,0,0,0,0,0,0,0,0,0,0,0,0,0,0,0,0,0,0,0,0,0,0,0,0,0,0,0,0,0,0,0,0,0,0,0,0,0,0,0,0,0,0,0,0,0,0,0,0,0,0,0,0,0,0,0,0,0,0,0,0,0,0],"trees":[{"base_weights":[5.8508386E2,3.7876685E2,9.568282E2,2.9748828E2,5.6207556E2,1.067943E1,8.492326E2,2.4375637E0,3.441883E0,4.275399E0,5.9427457E0,5.59671E0,8.833243E0],"categories":[],"categories_nodes":[],"categories_segments":[],"categories_sizes":[],"default_left":[0,0,0,0,0,0,1,0,0,0,0,0,0],"id":0,"left_children":[1,3,5,7,9,-1,11,-1,-1,-1,-1,-1,-1],"loss_changes":[4.297149E7,5.270948E6,1.496112E6,5.55968E5,2.26768E5,0E0,5.61896E5,0E0,0E0,0E0,0E0,0E0,0E0],"parents":[2147483647,0,0,1,1,2,2,3,3,4,4,6,6],"right_children":[2,4,6,8,10,-1,12,-1,-1,-1,-1,-1,-1],"split_conditions":[7.21355E2,4.33995E2,3E0,2.91885E2,4.97257E2,1.067943E1,7.49517E2,2.4375637E0,3.441883E0,4.275399E0,5.9427457E0,5.59671E0,8.833243E0],"split_indices":[4,4,2,4,4,0,4,0,0,0,0,0,0],"split_type":[0,0,0,0,0,0,0,0,0,0,0,0,0],"sum_hessian":[5.64E2,3.64E2,2E2,2.54E2,1.1E2,9.4E1,1.06E2,1.21E2,1.33E2,2.4E1,8.6E1,1.3E1,9.3E1],"tree_param":{"num_deleted":"0","num_feature":"7","num_nodes":"13","size_leaf_vector":"1"}},{"base_weights":[5.793059E2,3.750233E2,9.473848E2,2.9453647E2,5.565469E2,1.0573759E1,8.408751E2,2.4133878E0,3.4077213E0,4.2343554E0,5.8840013E0,5.1371922E0,8.693065E0],"categories":[],"categories_nodes":[],"categories_segments":[],"categories_sizes":[],"default_left":[0,0,0,0,0,0,0,0,0,0,0,0,0],"id":1,"left_children":[1,3,5,7,9,-1,11,-1,-1,-1,-1,-1,-1],"loss_changes":[4.2128256E7,5.168816E6,1.465616E6,5.44966E5,2.21492E5,0E0,5.4868E5,0E0,0E0,0E0,0E0,0E0,0E0],"parents":[2147483647,0,0,1,1,2,2,3,3,4,4,6,6],"right_children":[2,4,6,8,10,-1,12,-1,-1,-1,-1,-1,-1],"split_conditions":[7.21355E2,4.33995E2,3E0,2.91885E2,4.97257E2,1.0573759E1,1.974E3,2.4133878E0,3.4077213E0,4.2343554E0,5.8840013E0,5.1371922E0,8.693065E0],"split_indices":[4,4,2,4,4,0,3,0,0,0,0,0,0],"split_type":[0,0,0,0,0,0,0,0,0,0,0,0,0],"sum_hessian":[5.64E2,3.64E2,2E2,2.54E2,1.1E2,9.4E1,1.06E2,1.21E2,1.33E2,2.4E1,8.6E1,1E1,9.6E1],"tree_param":{"num_deleted":"0","num_feature":"7","num_nodes":"13","size_leaf_vector":"1"}},{"base_weights":[5.735843E2,3.713167E2,9.380324E2,2.9161392E2,5.510726E2,1.0469134E1,8.3259564E2,2.3894517E0,3.3738983E0,4.1937056E0,5.825838E0,5.489418E0,8.659845E0],"categories":[],"categories_nodes":[],"categories_segments":[],"categories_sizes":[],"default_left":[0,0,0,0,0,0,1,0,0,0,0,0,0],"id":2,"left_children":[1,3,5,7,9,-1,11,-1,-1,-1,-1,-1,-1],"loss_changes":[4.130125E7,5.068668E6,1.43584E6,5.34178E5,2.16344E5,0E0,5.38008E5,0E0,0E0,0E0,0E0,0E0,0E0],"parents":[2147483647,0,0,1,1,2,2,3,3,4,4,6,6],"right_children":[2,4,6,8,10,-1,12,-1,-1,-1,-1,-1,-1],"split_conditions":[7.21355E2,4.33995E2,3E0,2.91885E2,4.97257E2,1.0469134E1,7.49517E2,2.3894517E0,3.3738983E0,4.1937056E0,5.825838E0,5.489418E0,8.659845E0],"split_indices":[4,4,2,4,4,0,4,0,0,0,0,0,0],"split_type":[0,0,0,0,0,0,0,0,0,0,0,0,0],"sum_hessian":[5.64E2,3.64E2,2E2,2.54E2,1.1E2,9.4E1,1.06E2,1.21E2,1.33E2,2.4E1,8.6E1,1.3E1,9.3E1],"tree_param":{"num_deleted":"0","num_feature":"7","num_nodes":"13","size_leaf_vector":"1"}},{"base_weights":[5.679199E2,3.676468E2,9.2877454E2,2.8872037E2,5.456521E2,1.0365545E1,8.244019E2,2.3657532E0,3.340411E0,4.153446E0,5.7682486E0,5.4384446E0,8.574168E0],"categories":[],"categories_nodes":[],"categories_segments":[],"categories_sizes":[],"default_left":[0,0,0,0,0,0,1,0,0,0,0,0,0],"id":3,"left_children":[1,3,5,7,9,-1,11,-1,-1,-1,-1,-1,-1],"loss_changes":[4.04908E7,4.970464E6,1.406576E6,5.23602E5,2.11306E5,0E0,5.24792E5,0E0,0E0,0E0,0E0,0E0,0E0],"parents":[2147483647,0,0,1,1,2,2,3,3,4,4,6,6],"right_children":[2,4,6,8,10,-1,12,-1,-1,-1,-1,-1,-1],"split_conditions":[7.21355E2,4.33995E2,3E0,2.91885E2,4.97257E2,1.0365545E1,7.49517E2,2.3657532E0,3.340411E0,4.153446E0,5.7682486E0,5.4384446E0,8.574168E0],"split_indices":[4,4,2,4,4,0,4,0,0,0,0,0,0],"split_type":[0,0,0,0,0,0,0,0,0,0,0,0,0],"sum_hessian":[5.64E2,3.64E2,2E2,2.54E2,1.1E2,9.4E1,1.06E2,1.21E2,1.33E2,2.4E1,8.6E1,1.3E1,9.3E1],"tree_param":{"num_deleted":"0","num_feature":"7","num_nodes":"13","size_leaf_vector":"1"}},{"base_weights":[5.623115E2,3.6401315E2,9.196081E2,2.8585556E2,5.40285E2,1.026298E1,8.162888E2,2.3422894E0,3.3072565E0,4.113573E0,5.7112293E0,4.9911466E0,8.4384165E0],"categories":[],"categories_nodes":[],"categories_segments":[],"categories_sizes":[],"default_left":[0,0,0,0,0,0,0,0,0,0,0,0,0],"id":4,"left_children":[1,3,5,7,9,-1,11,-1,-1,-1,-1,-1,-1],"loss_changes":[3.969624E7,4.87416E6,1.377888E6,5.13238E5,2.06384E5,0E0,5.13904E5,0E0,0E0,0E0,0E0,0E0,0E0],"parents":[2147483647,0,0,1,1,2,2,3,3,4,4,6,6],"right_children":[2,4,6,8,10,-1,12,-1,-1,-1,-1,-1,-1],"split_conditions":[7.21355E2,4.33995E2,3E0,2.91885E2,4.97257E2,1.026298E1,1.974E3,2.3422894E0,3.3072565E0,4.113573E0,5.7112293E0,4.9911466E0,8.4384165E0],"split_indices":[4,4,2,4,4,0,3,0,0,0,0,0,0],"split_type":[0,0,0,0,0,0,0,0,0,0,0,0,0],"sum_hessian":[5.64E2,3.64E2,2E2,2.54E2,1.1E2,9.4E1,1.06E2,1.21E2,1.33E2,2.4E1,8.6E1,1E1,9.6E1],"tree_param":{"num_deleted":"0","num_feature":"7","num_nodes":"13","size_leaf_vector":"1"}},{"base_weights":[5.5675775E2,3.604154E2,9.105299E2,2.8301917E2,5.349706E2,1.0161431E1,8.0825146E2,2.29064E0,3.250179E0,4.074083E0,5.654773E0,5.334212E0,8.405852E0],"categories":[],"categories_nodes":[],"categories_segments":[],"categories_sizes":[],"default_left":[0,0,0,0,0,0,1,0,0,0,0,0,0],"id":5,"left_children":[1,3,5,7,9,-1,11,-1,-1,-1,-1,-1,-1],"loss_changes":[3.891701E7,4.779712E6,1.349888E6,5.03392E5,2.01578E5,0E0,5.02448E5,0E0,0E0,0E0,0E0,0E0,0E0],"parents":[2147483647,0,0,1,1,2,2,3,3,4,4,6,6],"right_children":[2,4,6,8,10,-1,12,-1,-1,-1,-1,-1,-1],"split_conditions":[7.21355E2,4.33995E2,3E0,2.83891E2,4.97257E2,1.0161431E1,7.49517E2,2.29064E0,3.250179E0,4.074083E0,5.654773E0,5.334212E0,8.405852E0],"split_indices":[4,4,2,4,4,0,4,0,0,0,0,0,0],"split_type":[0,0,0,0,0,0,0,0,0,0,0,0,0],"sum_hessian":[5.64E2,3.64E2,2E2,2.54E2,1.1E2,9.4E1,1.06E2,1.14E2,1.4E2,2.4E1,8.6E1,1.3E1,9.3E1],"tree_param":{"num_deleted":"0","num_feature":"7","num_nodes":"13","size_leaf_vector":"1"}},{"base_weights":[5.512595E2,3.568531E2,9.015435E2,2.802107E2,5.2970856E2,1.0060886E1,8.0029736E2,2.439164E0,3.429398E0,4.0349717E0,5.5988755E0,4.8972797E0,8.27266E0],"categories":[],"categories_nodes":[],"categories_segments":[],"categories_sizes":[],"default_left":[0,0,0,0,0,0,0,0,0,0,0,0,0],"id":6,"left_children":[1,3,5,7,9,-1,11,-1,-1,-1,-1,-1,-1],"loss_changes":[3.8153344E7,4.687112E6,1.322368E6,4.96912E5,1.96878E5,0E0,4.91064E5,0E0,0E0,0E0,0E0,0E0,0E0],"parents":[2147483647,0,0,1,1,2,2,3,3,4,4,6,6],"right_children":[2,4,6,8,10,-1,12,-1,-1,-1,-1,-1,-1],"split_conditions":[7.21355E2,4.33995E2,3E0,3.1804E2,4.97257E2,1.0060886E1,1.974E3,2.439164E0,3.429398E0,4.0349717E0,5.5988755E0,4.8972797E0,8.27266E0],"split_indices":[4,4,2,4,4,0,3,0,0,0,0,0,0],"split_type":[0,0,0,0,0,0,0,0,0,0,0,0,0],"sum_hessian":[5.64E2,3.64E2,2E2,2.54E2,1.1E2,9.4E1,1.06E2,1.64E2,9E1,2.4E1,8.6E1,1E1,9.6E1],"tree_param":{"num_deleted":"0","num_feature":"7","num_nodes":"13","size_leaf_vector":"1"}},{"base_weights":[5.458155E2,3.5332703E2,8.926437E2,2.774316E2,5.244983E2,9.961337E0,7.924175E2,2.2437532E0,3.1873684E0,3.996236E0,5.543531E0,5.2319717E0,8.240841E0],"categories":[],"categories_nodes":[],"categories_segments":[],"categories_sizes":[],"default_left":[0,0,0,0,0,0,1,0,0,0,0,0,0],"id":7,"left_children":[1,3,5,7,9,-1,11,-1,-1,-1,-1,-1,-1],"loss_changes":[3.7404224E7,4.596244E6,1.295504E6,4.87318E5,1.92286E5,0E0,4.81048E5,0E0,0E0,0E0,0E0,0E0,0E0],"parents":[2147483647,0,0,1,1,2,2,3,3,4,4,6,6],"right_children":[2,4,6,8,10,-1,12,-1,-1,-1,-1,-1,-1],"split_conditions":[7.21355E2,4.33995E2,3E0,2.83891E2,4.97257E2,9.961337E0,7.49517E2,2.2437532E0,3.1873684E0,3.996236E0,5.543531E0,5.2319717E0,8.240841E0],"split_indices":[4,4,2,4,4,0,4,0,0,0,0,0,0],"split_type":[0,0,0,0,0,0,0,0,0,0,0,0,0],"sum_hessian":[5.64E2,3.64E2,2E2,2.54E2,1.1E2,9.4E1,1.06E2,1.14E2,1.4E2,2.4E1,8.6E1,1.3E1,9.3E1],"tree_param":{"num_deleted":"0","num_feature":"7","num_nodes":"13","size_leaf_vector":"1"}},{"base_weights":[5.404253E2,3.4983478E2,8.838338E2,2.746786E2,5.1933923E2,9.862772E0,7.846192E2,2.389759E0,3.3639572E0,3.957872E0,5.4887323E0,4.8051953E0,8.110159E0],"categories":[],"categories_nodes":[],"categories_segments":[],"categories_sizes":[],"default_left":[0,0,0,0,0,0,0,0,0,0,0,0,0],"id":8,"left_children":[1,3,5,7,9,-1,11,-1,-1,-1,-1,-1,-1],"loss_changes":[3.6670304E7,4.507192E6,1.269088E6,4.81494E5,1.87802E5,0E0,4.692E5,0E0,0E0,0E0,0E0,0E0,0E0],"parents":[2147483647,0,0,1,1,2,2,3,3,4,4,6,6],"right_children":[2,4,6,8,10,-1,12,-1,-1,-1,-1,-1,-1],"split_conditions":[7.21355E2,4.33995E2,3E0,3.1804E2,4.97257E2,9.862772E0,1.974E3,2.389759E0,3.3639572E0,3.957872E0,5.4887323E0,4.8051953E0,8.110159E0],"split_indices":[4,4,2,4,4,0,3,0,0,0,0,0,0],"split_type":[0,0,0,0,0,0,0,0,0,0,0,0,0],"sum_hessian":[5.64E2,3.64E2,2E2,2.54E2,1.1E2,9.4E1,1.06E2,1.64E2,9E1,2.4E1,8.6E1,1E1,9.6E1],"tree_param":{"num_deleted":"0","num_feature":"7","num_nodes":"13","size_leaf_vector":"1"}},{"base_weights":[5.3508826E2,3.4637808E2,8.7510876E2,2.7195435E2,5.1423096E2,9.7651825E0,7.7689374E2,2.2431972E0,3.167423E0,3.9198766E0,5.4344764E0,5.131688E0,8.07907E0],"categories":[],"categories_nodes":[],"categories_segments":[],"categories_sizes":[],"default_left":[0,0,0,0,0,0,1,0,0,0,0,0,0],"id":9,"left_children":[1,3,5,7,9,-1,11,-1,-1,-1,-1,-1,-1],"loss_changes":[3.5950304E7,4.41982E6,1.243296E6,4.7298E5,1.83416E5,0E0,4.6056E5,0E0,0E0,0E0,0E0,0E0,0E0],"parents":[2147483647,0,0,1,1,2,2,3,3,4,4,6,6],"right_children":[2,4,6,8,10,-1,12,-1,-1,-1,-1,-1,-1],"split_conditions":[7.21355E2,4.33995E2,3E0,3.01992E2,4.97257E2,9.7651825E0,7.49517E2,2.2431972E0,3.167423E0,3.9198766E0,5.4344764E0,5.131688E0,8.07907E0],"split_indices":[4,4,2,6,4,0,4,0,0,0,0,0,0],"split_type":[0,0,0,0,0,0,0,0,0,0,0,0,0],"sum_hessian":[5.64E2,3.64E2,2E2,2.54E2,1.1E2,9.4E1,1.06E2,1.26E2,1.28E2,2.4E1,8.6E1,1.3E1,9.3E1],"tree_param":{"num_deleted":"0","num_feature":"7","num_nodes":"13","size_leaf_vector":"1"}},{"base_weights":[5.2980414E2,3.4295474E2,8.66472E2,2.6925604E2,5.091729E2,9.668559E0,7.692482E2,2.3414698E0,3.2995644E0,3.8822458E0,5.380756E0,5.0840364E0,7.9991393E0],"categories":[],"categories_nodes":[],"categories_segments":[],"categories_sizes":[],"default_left":[0,0,0,0,0,0,1,0,0,0,0,0,0],"id":10,"left_children":[1,3,5,7,9,-1,11,-1,-1,-1,-1,-1,-1],"loss_changes":[3.524485E7,4.334172E6,1.217936E6,4.6618E5,1.79132E5,0E0,4.49212E5,0E0,0E0,0E0,0E0,0E0,0E0],"parents":[2147483647,0,0,1,1,2,2,3,3,4,4,6,6],"right_children":[2,4,6,8,10,-1,12,-1,-1,-1,-1,-1,-1],"split_conditions":[7.21355E2,4.33995E2,3E0,3.1804E2,4.97257E2,9.668559E0,7.49517E2,2.3414698E0,3.2995644E0,3.8822458E0,5.380756E0,5.0840364E0,7.9991393E0],"split_indices":[4,4,2,4,4,0,4,0,0,0,0,0,0],"split_type":[0,0,0,0,0,0,0,0,0,0,0,0,0],"sum_hessian":[5.64E2,3.64E2,2E2,2.54E2,1.1E2,9.4E1,1.06E2,1.64E2,9E1,2.4E1,8.6E1,1.3E1,9.3E1],"tree_param":{"num_deleted":"0","num_feature":"7","num_nodes":"13","size_leaf_vector":"1"}},{"base_weights":[5.2457275E2,3.3956604E2,8.579205E2,2.665856E2,5.041646E2,9.572891E0,7.6167804E2,2.1785696E0,3.0896103E0,3.8449764E0,5.327567E0,4.668642E0,7.8725815E0],"categories":[],"categories_nodes":[],"categories_segments":[],"categories_sizes":[],"default_left":[0,0,0,0,0,0,0,0,0,0,0,0,0],"id":11,"left_children":[1,3,5,7,9,-1,11,-1,-1,-1,-1,-1,-1],"loss_changes":[3.4553104E7,4.250152E6,1.19312E6,4.59238E5,1.74946E5,0E0,4.39384E5,0E0,0E0,0E0,0E0,0E0,0E0],"parents":[2147483647,0,0,1,1,2,2,3,3,4,4,6,6],"right_children":[2,4,6,8,10,-1,12,-1,-1,-1,-1,-1,-1],"split_conditions":[7.21355E2,4.33995E2,3E0,2.91885E2,4.97257E2,9.572891E0,1.974E3,2.1785696E0,3.0896103E0,3.8449764E0,5.327567E0,4.668642E0,7.8725815E0],"split_indices":[4,4,2,4,4,0,3,0,0,0,0,0,0],"split_type":[0,0,0,0,0,0,0,0,0,0,0,0,0],"sum_hessian":[5.64E2,3.64E2,2E2,2.54E2,1.1E2,9.4E1,1.06E2,1.21E2,1.33E2,2.4E1,8.6E1,1E1,9.6E1],"tree_param":{"num_deleted":"0","num_feature":"7","num_nodes":"13","size_leaf_vector":"1"}},{"base_weights":[5.193917E2,3.3620993E2,8.494513E2,2.5879272E2,4.882885E2,9.478169E0,7.5417847E2,2.0888724E0,2.9437332E0,3.8391435E0,5.292053E0,4.9866104E0,7.842111E0],"categories":[],"categories_nodes":[],"categories_segments":[],"categories_sizes":[],"default_left":[0,0,0,0,0,0,1,0,0,0,0,0,0],"id":12,"left_children":[1,3,5,7,9,-1,11,-1,-1,-1,-1,-1,-1],"loss_changes":[3.3874816E7,4.17096E6,1.168864E6,3.71773E5,3.17854E5,0E0,4.30044E5,0E0,0E0,0E0,0E0,0E0,0E0],"parents":[2147483647,0,0,1,1,2,2,3,3,4,4,6,6],"right_children":[2,4,6,8,10,-1,12,-1,-1,-1,-1,-1,-1],"split_conditions":[7.21355E2,4.08262E2,3E0,2.7949E2,5.22575E2,9.478169E0,7.49517E2,2.0888724E0,2.9437332E0,3.8391435E0,5.292053E0,4.9866104E0,7.842111E0],"split_indices":[4,4,2,4,5,0,4,0,0,0,0,0,0],"split_type":[0,0,0,0,0,0,0,0,0,0,0,0,0],"sum_hessian":[5.64E2,3.64E2,2E2,2.43E2,1.21E2,9.4E1,1.06E2,1.04E2,1.39E2,3.7E1,8.4E1,1.3E1,9.3E1],"tree_param":{"num_deleted":"0","num_feature":"7","num_nodes":"13","size_leaf_vector":"1"}},{"base_weights":[5.142624E2,3.3288663E2,8.4106775E2,2.5622543E2,4.834805E2,9.384386E0,7.467566E2,2.0681827E0,2.9145062E0,3.7609324E0,5.223593E0,4.580867E0,7.717938E0],"categories":[],"categories_nodes":[],"categories_segments":[],"categories_sizes":[],"default_left":[0,0,0,0,0,0,0,0,0,0,0,0,0],"id":13,"left_children":[1,3,5,7,9,-1,11,-1,-1,-1,-1,-1,-1],"loss_changes":[3.321016E7,4.08994E6,1.145024E6,3.64374E5,3.12902E5,0E0,4.19792E5,0E0,0E0,0E0,0E0,0E0,0E0],"parents":[2147483647,0,0,1,1,2,2,3,3,4,4,6,6],"right_children":[2,4,6,8,10,-1,12,-1,-1,-1,-1,-1,-1],"split_conditions":[7.21355E2,4.08262E2,3E0,2.7949E2,4.97257E2,9.384386E0,1.974E3,2.0681827E0,2.9145062E0,3.7609324E0,5.223593E0,4.580867E0,7.717938E0],"split_indices":[4,4,2,4,4,0,3,0,0,0,0,0,0],"split_type":[0,0,0,0,0,0,0,0,0,0,0,0,0],"sum_hessian":[5.64E2,3.64E2,2E2,2.43E2,1.21E2,9.4E1,1.06E2,1.04E2,1.39E2,3.5E1,8.6E1,1E1,9.6E1],"tree_param":{"num_deleted":"0","num_feature":"7","num_nodes":"13","size_leaf_vector":"1"}},{"base_weights":[5.0918286E2,3.2959604E2,8.3276495E2,2.536836E2,4.7871933E2,7.3913107E0,9.294603E0,2.0476978E0,2.885569E0,3.7628334E0,5.1888227E0],"categories":[],"categories_nodes":[],"categories_segments":[],"categories_sizes":[],"default_left":[0,0,1,0,0,0,0,0,0,0,0],"id":14,"left_children":[1,3,5,7,9,-1,-1,-1,-1,-1,-1],"loss_changes":[3.2558288E7,4.010472E6,1.132864E6,3.57126E5,3.06676E5,0E0,0E0,0E0,0E0,0E0,0E0],"parents":[2147483647,0,0,1,1,2,2,3,3,4,4],"right_children":[2,4,6,8,10,-1,-1,-1,-1,-1,-1],"split_conditions":[7.21355E2,4.08262E2,9.78568E2,2.7949E2,5.22575E2,7.3913107E0,9.294603E0,2.0476978E0,2.885569E0,3.7628334E0,5.1888227E0],"split_indices":[4,4,4,4,5,0,0,0,0,0,0],"split_type":[0,0,0,0,0,0,0,0,0,0,0],"sum_hessian":[5.64E2,3.64E2,2E2,2.43E2,1.21E2,1.06E2,9.4E1,1.04E2,1.39E2,3.7E1,8.4E1],"tree_param":{"num_deleted":"0","num_feature":"7","num_nodes":"11","size_leaf_vector":"1"}},{"base_weights":[5.0414514E2,3.2633813E2,8.245203E2,2.4513033E2,4.6287637E2,9.20417E0,7.316726E2,1.9531962E0,2.7332616E0,3.6591754E0,5.1216497E0,4.8224134E0,7.610382E0],"categories":[],"categories_nodes":[],"categories_segments":[],"categories_sizes":[],"default_left":[0,0,0,0,0,0,1,0,0,0,0,0,0],"id":15,"left_children":[1,3,5,7,9,-1,11,-1,-1,-1,-1,-1,-1],"loss_changes":[3.1916128E7,3.933644E6,1.116224E6,2.71044E5,4.5775E5,0E0,4.1674E5,0E0,0E0,0E0,0E0,0E0,0E0],"parents":[2147483647,0,0,1,1,2,2,3,3,4,4,6,6],"right_children":[2,4,6,8,10,-1,12,-1,-1,-1,-1,-1,-1],"split_conditions":[7.21355E2,3.93374E2,3E0,2.67953E2,4.97257E2,9.20417E0,7.49517E2,1.9531962E0,2.7332616E0,3.6591754E0,5.1216497E0,4.8224134E0,7.610382E0],"split_indices":[4,4,2,4,4,0,4,0,0,0,0,0,0],"split_type":[0,0,0,0,0,0,0,0,0,0,0,0,0],"sum_hessian":[5.64E2,3.64E2,2E2,2.3E2,1.34E2,9.4E1,1.06E2,8.6E1,1.44E2,4.8E1,8.6E1,1.3E1,9.3E1],"tree_param":{"num_deleted":"0","num_feature":"7","num_nodes":"13","size_leaf_vector":"1"}},{"base_weights":[4.991658E2,3.2311163E2,8.1638275E2,2.426993E2,4.5831265E2,7.2426575E2,9.115421E0,1.9338888E0,2.7061174E0,3.6233304E0,5.0710216E0,5.75805E0,7.5177617E0],"categories":[],"categories_nodes":[],"categories_segments":[],"categories_sizes":[],"default_left":[0,0,1,0,0,1,0,0,0,0,0,0,0],"id":16,"left_children":[1,3,5,7,9,11,-1,-1,-1,-1,-1,-1,-1],"loss_changes":[3.1289984E7,3.856984E6,1.101736E6,2.65609E5,4.48438E5,4.132E3,0E0,0E0,0E0,0E0,0E0,0E0,0E0],"parents":[2147483647,0,0,1,1,2,2,3,3,4,4,5,5],"right_children":[2,4,6,8,10,12,-1,-1,-1,-1,-1,-1,-1],"split_conditions":[7.21355E2,3.93374E2,9.78568E2,2.67953E2,4.97257E2,7.42911E2,9.115421E0,1.9338888E0,2.7061174E0,3.6233304E0,5.0710216E0,5.75805E0,7.5177617E0],"split_indices":[4,4,4,4,4,5,0,0,0,0,0,0,0],"split_type":[0,0,0,0,0,0,0,0,0,0,0,0,0],"sum_hessian":[5.64E2,3.64E2,2E2,2.3E2,1.34E2,1.06E2,9.4E1,8.6E1,1.44E2,4.8E1,8.6E1,2E1,8.6E1],"tree_param":{"num_deleted":"0","num_feature":"7","num_nodes":"13","size_leaf_vector":"1"}},{"base_weights":[4.942374E2,3.1991705E2,8.083304E2,2.461988E2,4.647313E2,9.027142E0,7.169772E2,1.9862541E0,2.801203E0,3.6506917E0,5.0381866E0,4.3758426E0,7.412694E0],"categories":[],"categories_nodes":[],"categories_segments":[],"categories_sizes":[],"default_left":[0,0,0,0,0,0,0,0,0,0,0,0,0],"id":17,"left_children":[1,3,5,7,9,-1,11,-1,-1,-1,-1,-1,-1],"loss_changes":[3.0676736E7,3.782128E6,1.085856E6,3.38118E5,2.91326E5,0E0,4.01852E5,0E0,0E0,0E0,0E0,0E0,0E0],"parents":[2147483647,0,0,1,1,2,2,3,3,4,4,6,6],"right_children":[2,4,6,8,10,-1,12,-1,-1,-1,-1,-1,-1],"split_conditions":[7.21355E2,4.08262E2,3E0,2.7949E2,5.22575E2,9.027142E0,1.974E3,1.9862541E0,2.801203E0,3.6506917E0,5.0381866E0,4.3758426E0,7.412694E0],"split_indices":[4,4,2,4,5,0,3,0,0,0,0,0,0],"split_type":[0,0,0,0,0,0,0,0,0,0,0,0,0],"sum_hessian":[5.64E2,3.64E2,2E2,2.43E2,1.21E2,9.4E1,1.06E2,1.04E2,1.39E2,3.7E1,8.4E1,1E1,9.6E1],"tree_param":{"num_deleted":"0","num_feature":"7","num_nodes":"13","size_leaf_vector":"1"}},{"base_weights":[4.893557E2,3.167548E2,8.003506E2,2.3787022E2,4.4938876E2,7.0974054E2,8.939814E0,1.895138E0,2.6524358E0,3.523342E0,4.9559298E0,5.6455383E0,7.3662767E0],"categories":[],"categories_nodes":[],"categories_segments":[],"categories_sizes":[],"default_left":[0,0,1,0,0,1,0,0,0,0,0,0,0],"id":18,"left_children":[1,3,5,7,9,11,-1,-1,-1,-1,-1,-1,-1],"loss_changes":[3.007456E7,3.712016E6,1.070776E6,2.55503E5,4.3077E5,1.824E3,0E0,0E0,0E0,0E0,0E0,0E0,0E0],"parents":[2147483647,0,0,1,1,2,2,3,3,4,4,5,5],"right_children":[2,4,6,8,10,12,-1,-1,-1,-1,-1,-1,-1],"split_conditions":[7.21355E2,3.93374E2,9.78568E2,2.67953E2,4.97257E2,7.42911E2,8.939814E0,1.895138E0,2.6524358E0,3.523342E0,4.9559298E0,5.6455383E0,7.3662767E0],"split_indices":[4,4,4,4,5,5,0,0,0,0,0,0,0],"split_type":[0,0,0,0,0,0,0,0,0,0,0,0,0],"sum_hessian":[5.64E2,3.64E2,2E2,2.3E2,1.34E2,1.06E2,9.4E1,8.6E1,1.44E2,4.6E1,8.8E1,2E1,8.6E1],"tree_param":{"num_deleted":"0","num_feature":"7","num_nodes":"13","size_leaf_vector":"1"}},{"base_weights":[4.8452405E2,3.1362296E2,7.924563E2,2.355112E2,4.4495767E2,8.853535E0,7.025714E2,1.8802568E0,2.6289465E0,3.5172195E0,4.9235525E0,4.6246033E0,7.308584E0],"categories":[],"categories_nodes":[],"categories_segments":[],"categories_sizes":[],"default_left":[0,0,0,0,0,0,1,0,0,0,0,0,0],"id":19,"left_children":[1,3,5,7,9,-1,11,-1,-1,-1,-1,-1,-1],"loss_changes":[2.9485144E7,3.639664E6,1.056336E6,2.50942E5,4.23414E5,0E0,3.88756E5,0E0,0E0,0E0,0E0,0E0,0E0],"parents":[2147483647,0,0,1,1,2,2,3,3,4,4,6,6],"right_children":[2,4,6,8,10,-1,12,-1,-1,-1,-1,-1,-1],"split_conditions":[7.21355E2,3.93374E2,3E0,2.75679E2,4.97257E2,8.853535E0,7.49517E2,1.8802568E0,2.6289465E0,3.5172195E0,4.9235525E0,4.6246033E0,7.308584E0],"split_indices":[4,4,2,6,4,0,4,0,0,0,0,0,0],"split_type":[0,0,0,0,0,0,0,0,0,0,0,0,0],"sum_hessian":[5.64E2,3.64E2,2E2,2.3E2,1.34E2,9.4E1,1.06E2,8.7E1,1.43E2,4.8E1,8.6E1,1.3E1,9.3E1],"tree_param":{"num_deleted":"0","num_feature":"7","num_nodes":"13","size_leaf_vector":"1"}},{"base_weights":[4.7973853E2,3.105222E2,7.846352E2,2.3317561E2,4.4057062E2,6.955185E0,8.767493E0,1.8573017E0,2.6003478E0,3.5097857E0,4.8914266E0],"categories":[],"categories_nodes":[],"categories_segments":[],"categories_sizes":[],"default_left":[0,0,1,0,0,0,0,0,0,0,0],"id":20,"left_children":[1,3,5,7,9,-1,-1,-1,-1,-1,-1],"loss_changes":[2.8906688E7,3.568732E6,1.040192E6,2.46079E5,4.15798E5,0E0,0E0,0E0,0E0,0E0,0E0],"parents":[2147483647,0,0,1,1,2,2,3,3,4,4],"right_children":[2,4,6,8,10,-1,-1,-1,-1,-1,-1],"split_conditions":[7.21355E2,3.93374E2,9.78568E2,2.67953E2,5.22575E2,6.955185E0,8.767493E0,1.8573017E0,2.6003478E0,3.5097857E0,4.8914266E0],"split_indices":[4,4,4,4,5,0,0,0,0,0,0],"split_type":[0,0,0,0,0,0,0,0,0,0,0],"sum_hessian":[5.64E2,3.64E2,2E2,2.3E2,1.34E2,1.06E2,9.4E1,8.6E1,1.44E2,5E1,8.4E1],"tree_param":{"num_deleted":"0","num_feature":"7","num_nodes":"11","size_leaf_vector":"1"}},{"base_weights":[4.7499173E2,3.074522E2,7.7686707E2,2.3086316E2,4.3622714E2,8.683567E0,6.8837744E2,1.8427149E0,2.5773263E0,3.4472558E0,4.827484E0,4.1794686E0,7.1194816E0],"categories":[],"categories_nodes":[],"categories_segments":[],"categories_sizes":[],"default_left":[0,0,0,0,0,0,0,0,0,0,0,0,0],"id":21,"left_children":[1,3,5,7,9,-1,11,-1,-1,-1,-1,-1,-1],"loss_changes":[2.8336624E7,3.499192E6,1.02952E6,2.41695E5,4.08248E5,0E0,3.84484E5,0E0,0E0,0E0,0E0,0E0,0E0],"parents":[2147483647,0,0,1,1,2,2,3,3,4,4,6,6],"right_children":[2,4,6,8,10,-1,12,-1,-1,-1,-1,-1,-1],"split_conditions":[7.21355E2,3.93374E2,3E0,2.75679E2,4.97257E2,8.683567E0,1.974E3,1.8427149E0,2.5773263E0,3.4472558E0,4.827484E0,4.1794686E0,7.1194816E0],"split_indices":[4,4,2,6,4,0,3,0,0,0,0,0,0],"split_type":[0,0,0,0,0,0,0,0,0,0,0,0,0],"sum_hessian":[5.64E2,3.64E2,2E2,2.3E2,1.34E2,9.4E1,1.06E2,8.7E1,1.43E2,4.8E1,8.6E1,1E1,9.6E1],"tree_param":{"num_deleted":"0","num_feature":"7","num_nodes":"13","size_leaf_vector":"1"}},{"base_weights":[4.7029965E2,3.0441248E2,7.691978E2,2.2857365E2,4.3192618E2,6.815139E2,8.598607E0,1.8871411E0,2.597286E0,3.4399555E0,4.7960305E0,5.415775E0,7.0745816E0],"categories":[],"categories_nodes":[],"categories_segments":[],"categories_sizes":[],"default_left":[0,0,1,0,0,1,0,0,0,0,0,0,0],"id":22,"left_children":[1,3,5,7,9,11,-1,-1,-1,-1,-1,-1,-1],"loss_changes":[2.7780448E7,3.430996E6,1.01188E6,2.37847E5,4.00976E5,5.328E3,0E0,0E0,0E0,0E0,0E0,0E0,0E0],"parents":[2147483647,0,0,1,1,2,2,3,3,4,4,5,5],"right_children":[2,4,6,8,10,12,-1,-1,-1,-1,-1,-1,-1],"split_conditions":[7.21355E2,3.93374E2,9.78568E2,2.7949E2,5.22575E2,7.42911E2,8.598607E0,1.8871411E0,2.597286E0,3.4399555E0,4.7960305E0,5.415775E0,7.0745816E0],"split_indices":[4,4,4,4,5,5,0,0,0,0,0,0,0],"split_type":[0,0,0,0,0,0,0,0,0,0,0,0,0],"sum_hessian":[5.64E2,3.64E2,2E2,2.3E2,1.34E2,1.06E2,9.4E1,1.04E2,1.26E2,5E1,8.4E1,2E1,8.6E1],"tree_param":{"num_deleted":"0","num_feature":"7","num_nodes":"13","size_leaf_vector":"1"}},{"base_weights":[4.656565E2,3.014032E2,7.616107E2,2.3647514E2,4.4784686E2,8.516603E0,6.745423E2,2.060076E0,2.949866E0,3.5485125E0,4.7790875E0,4.421678E0,7.0197525E0],"categories":[],"categories_nodes":[],"categories_segments":[],"categories_sizes":[],"default_left":[0,0,0,0,0,0,1,0,0,0,0,0,0],"id":23,"left_children":[1,3,5,7,9,-1,11,-1,-1,-1,-1,-1,-1],"loss_changes":[2.7235928E7,3.364622E6,1.001464E6,3.93819E5,1.40728E5,0E0,3.71704E5,0E0,0E0,0E0,0E0,0E0,0E0],"parents":[2147483647,0,0,1,1,2,2,3,3,4,4,6,6],"right_children":[2,4,6,8,10,-1,12,-1,-1,-1,-1,-1,-1],"split_conditions":[7.21355E2,4.33995E2,3E0,3.22275E2,5.26079E2,8.516603E0,7.49517E2,2.060076E0,2.949866E0,3.5485125E0,4.7790875E0,4.421678E0,7.0197525E0],"split_indices":[4,4,2,4,4,0,4,0,0,0,0,0,0],"split_type":[0,0,0,0,0,0,0,0,0,0,0,0,0],"sum_hessian":[5.64E2,3.64E2,2E2,2.54E2,1.1E2,9.4E1,1.06E2,1.7E2,8.4E1,3E1,8E1,1.3E1,9.3E1],"tree_param":{"num_deleted":"0","num_feature":"7","num_nodes":"13","size_leaf_vector":"1"}},{"base_weights":[4.6105887E2,2.984257E2,7.5409393E2,2.2402507E2,4.235229E2,6.678553E2,8.43288E0,1.7851303E0,2.5028224E0,3.3730516E0,4.7027087E0,5.3119993E0,6.9316454E0],"categories":[],"categories_nodes":[],"categories_segments":[],"categories_sizes":[],"default_left":[0,0,1,0,0,1,0,0,0,0,0,0,0],"id":24,"left_children":[1,3,5,7,9,11,-1,-1,-1,-1,-1,-1,-1],"loss_changes":[2.6701288E7,3.302286E6,9.82896E5,2.3137E5,3.85496E5,1.864E3,0E0,0E0,0E0,0E0,0E0,0E0,0E0],"parents":[2147483647,0,0,1,1,2,2,3,3,4,4,5,5],"right_children":[2,4,6,8,10,12,-1,-1,-1,-1,-1,-1,-1],"split_conditions":[7.21355E2,3.93374E2,9.78568E2,2.75679E2,5.22575E2,7.42911E2,8.43288E0,1.7851303E0,2.5028224E0,3.3730516E0,4.7027087E0,5.3119993E0,6.9316454E0],"split_indices":[4,4,4,6,5,5,0,0,0,0,0,0,0],"split_type":[0,0,0,0,0,0,0,0,0,0,0,0,0],"sum_hessian":[5.64E2,3.64E2,2E2,2.3E2,1.34E2,1.06E2,9.4E1,8.7E1,1.43E2,5E1,8.4E1,2E1,8.6E1],"tree_param":{"num_deleted":"0","num_feature":"7","num_nodes":"13","size_leaf_vector":"1"}},{"base_weights":[4.5650674E2,2.954753E2,7.466559E2,2.2180338E2,4.1934747E2,8.352868E0,6.609867E2,1.8289965E0,2.5222137E0,3.3127258E0,4.641328E0,4.0037513E0,6.837263E0],"categories":[],"categories_nodes":[],"categories_segments":[],"categories_sizes":[],"default_left":[0,0,0,0,0,0,0,0,0,0,0,0,0],"id":25,"left_children":[1,3,5,7,9,-1,11,-1,-1,-1,-1,-1,-1],"loss_changes":[2.6177944E7,3.237942E6,9.74064E5,2.27228E5,3.78746E5,0E0,3.60356E5,0E0,0E0,0E0,0E0,0E0,0E0],"parents":[2147483647,0,0,1,1,2,2,3,3,4,4,6,6],"right_children":[2,4,6,8,10,-1,12,-1,-1,-1,-1,-1,-1],"split_conditions":[7.21355E2,3.93374E2,3E0,2.7949E2,4.97257E2,8.352868E0,1.974E3,1.8289965E0,2.5222137E0,3.3127258E0,4.641328E0,4.0037513E0,6.837263E0],"split_indices":[4,4,2,4,4,0,3,0,0,0,0,0,0],"split_type":[0,0,0,0,0,0,0,0,0,0,0,0,0],"sum_hessian":[5.64E2,3.64E2,2E2,2.3E2,1.34E2,9.4E1,1.06E2,1.04E2,1.26E2,4.8E1,8.6E1,1E1,9.6E1],"tree_param":{"num_deleted":"0","num_feature":"7","num_nodes":"13","size_leaf_vector":"1"}},{"base_weights":[4.5199744E2,2.9255426E2,7.392848E2,2.1960417E2,4.1521292E2,6.544568E2,8.270459E0,1.7449809E0,2.451533E0,3.3059416E0,4.610993E0,5.277157E0,6.810519E0],"categories":[],"categories_nodes":[],"categories_segments":[],"categories_sizes":[],"default_left":[0,0,1,0,0,1,0,0,0,0,0,0,0],"id":26,"left_children":[1,3,5,7,9,11,-1,-1,-1,-1,-1,-1,-1],"loss_changes":[2.5664112E7,3.174824E6,9.55104E5,2.23431E5,3.71748E5,1.264E3,0E0,0E0,0E0,0E0,0E0,0E0,0E0],"parents":[2147483647,0,0,1,1,2,2,3,3,4,4,5,5],"right_children":[2,4,6,8,10,12,-1,-1,-1,-1,-1,-1,-1],"split_conditions":[7.21355E2,3.93374E2,9.78568E2,2.67953E2,5.22575E2,7.89909E2,8.270459E0,1.7449809E0,2.451533E0,3.3059416E0,4.610993E0,5.277157E0,6.810519E0],"split_indices":[4,4,4,4,5,4,0,0,0,0,0,0,0],"split_type":[0,0,0,0,0,0,0,0,0,0,0,0,0],"sum_hessian":[5.64E2,3.64E2,2E2,2.3E2,1.34E2,1.06E2,9.4E1,8.6E1,1.44E2,5E1,8.4E1,2.2E1,8.4E1],"tree_param":{"num_deleted":"0","num_feature":"7","num_nodes":"13","size_leaf_vector":"1"}},{"base_weights":[4.4753494E2,2.8966193E2,7.319932E2,2.2278319E2,4.210451E2,8.192404E0,6.4768976E2,1.8583592E0,2.6066046E0,3.3369038E0,4.580709E0,3.9193795E0,6.700153E0],"categories":[],"categories_nodes":[],"categories_segments":[],"categories_sizes":[],"default_left":[0,0,0,0,0,0,0,0,0,0,0,0,0],"id":27,"left_children":[1,3,5,7,9,-1,11,-1,-1,-1,-1,-1,-1],"loss_changes":[2.5161152E7,3.113358E6,9.47784E5,2.93028E5,2.4174E5,0E0,3.48344E5,0E0,0E0,0E0,0E0,0E0,0E0],"parents":[2147483647,0,0,1,1,2,2,3,3,4,4,6,6],"right_children":[2,4,6,8,10,-1,12,-1,-1,-1,-1,-1,-1],"split_conditions":[7.21355E2,4.08262E2,3E0,3.01992E2,5.22575E2,8.192404E0,1.974E3,1.8583592E0,2.6066046E0,3.3369038E0,4.580709E0,3.9193795E0,6.700153E0],"split_indices":[4,4,2,6,4,0,3,0,0,0,0,0,0],"split_type":[0,0,0,0,0,0,0,0,0,0,0,0,0],"sum_hessian":[5.64E2,3.64E2,2E2,2.43E2,1.21E2,9.4E1,1.06E2,1.26E2,1.17E2,3.9E1,8.2E1,1E1,9.6E1],"tree_param":{"num_deleted":"0","num_feature":"7","num_nodes":"13","size_leaf_vector":"1"}},{"base_weights":[4.431148E2,2.801328E2,7.1317377E2,2.2914558E2,4.3397703E0,6.0179767E2,7.888703E0,1.9881942E0,2.9209697E0,5.0551786E0,6.4381723E0],"categories":[],"categories_nodes":[],"categories_segments":[],"categories_sizes":[],"default_left":[0,1,1,0,0,1,0,0,0,0,0],"id":28,"left_children":[1,3,5,7,-1,9,-1,-1,-1,-1,-1],"loss_changes":[2.466856E7,2.677364E6,1.312576E6,4.53558E5,0E0,3.8648E4,0E0,0E0,0E0,0E0,0E0],"parents":[2147483647,0,0,1,1,2,2,3,3,5,5],"right_children":[2,4,6,8,-1,10,-1,-1,-1,-1,-1],"split_conditions":[6.74091E2,4.60466E2,9.12136E2,3.47168E2,4.3397703E0,7.49527E2,7.888703E0,1.9881942E0,2.9209697E0,5.0551786E0,6.4381723E0],"split_indices":[4,5,4,6,0,6,0,0,0,0,0],"split_type":[0,0,0,0,0,0,0,0,0,0,0],"sum_hessian":[5.64E2,3.53E2,2.11E2,2.67E2,8.6E1,8.9E1,1.22E2,1.83E2,8.4E1,3.1E1,5.8E1],"tree_param":{"num_deleted":"0","num_feature":"7","num_nodes":"11","size_leaf_vector":"1"}},{"base_weights":[4.387343E2,2.773576E2,7.061335E2,2.2687245E2,4.296871E0,5.959074E2,7.8104577E0,1.9531115E0,2.8611462E0,5.006207E0,6.374882E0],"categories":[],"categories_nodes":[],"categories_segments":[],"categories_sizes":[],"default_left":[0,1,1,0,0,1,0,0,0,0,0],"id":29,"left_children":[1,3,5,7,-1,9,-1,-1,-1,-1,-1],"loss_changes":[2.4185032E7,2.624908E6,1.285112E6,4.45214E5,0E0,3.7448E4,0E0,0E0,0E0,0E0,0E0],"parents":[2147483647,0,0,1,1,2,2,3,3,5,5],"right_children":[2,4,6,8,-1,10,-1,-1,-1,-1,-1],"split_conditions":[6.74091E2,4.60466E2,9.12136E2,3.4118E2,4.296871E0,7.49527E2,7.8104577E0,1.9531115E0,2.8611462E0,5.006207E0,6.374882E0],"split_indices":[4,5,4,6,0,6,0,0,0,0,0],"split_type":[0,0,0,0,0,0,0,0,0,0,0],"sum_hessian":[5.64E2,3.53E2,2.11E2,2.67E2,8.6E1,8.9E1,1.22E2,1.77E2,9E1,3.1E1,5.8E1],"tree_param":{"num_deleted":"0","num_feature":"7","num_nodes":"11","size_leaf_vector":"1"}},{"base_weights":[4.3439706E2,2.811394E2,7.105396E2,2.1090878E2,3.992293E2,7.95962E0,6.280567E2,1.6740123E0,2.3603208E0,3.1767359E0,4.434659E0,3.7922814E0,6.4979954E0],"categories":[],"categories_nodes":[],"categories_segments":[],"categories_sizes":[],"default_left":[0,0,0,0,0,0,0,0,0,0,0,0,0],"id":30,"left_children":[1,3,5,7,9,-1,11,-1,-1,-1,-1,-1,-1],"loss_changes":[2.3711584E7,2.942938E6,9.16312E5,2.12983E5,3.4617E5,0E0,3.32472E5,0E0,0E0,0E0,0E0,0E0,0E0],"parents":[2147483647,0,0,1,1,2,2,3,3,4,4,6,6],"right_children":[2,4,6,8,10,-1,12,-1,-1,-1,-1,-1,-1],"split_conditions":[7.21355E2,3.93374E2,3E0,2.75679E2,5.22575E2,7.95962E0,1.974E3,1.6740123E0,2.3603208E0,3.1767359E0,4.434659E0,3.7922814E0,6.4979954E0],"split_indices":[4,4,2,6,5,0,3,0,0,0,0,0,0],"split_type":[0,0,0,0,0,0,0,0,0,0,0,0,0],"sum_hessian":[5.64E2,3.64E2,2E2,2.3E2,1.34E2,9.4E1,1.06E2,8.7E1,1.43E2,5E1,8.4E1,1E1,9.6E1],"tree_param":{"num_deleted":"0","num_feature":"7","num_nodes":"13","size_leaf_vector":"1"}},{"base_weights":[4.3010602E2,2.718817E2,6.922819E2,2.2237086E2,4.2127285E0,5.840394E2,7.658554E0,1.928425E0,2.8367496E0,4.9093943E0,6.246353E0],"categories":[],"categories_nodes":[],"categories_segments":[],"categories_sizes":[],"default_left":[0,1,1,0,0,1,0,0,0,0,0],"id":31,"left_children":[1,3,5,7,-1,9,-1,-1,-1,-1,-1],"loss_changes":[2.3249448E7,2.524674E6,1.241032E6,4.30431E5,0E0,3.3492E4,0E0,0E0,0E0,0E0,0E0],"parents":[2147483647,0,0,1,1,2,2,3,3,5,5],"right_children":[2,4,6,8,-1,10,-1,-1,-1,-1,-1],"split_conditions":[6.74091E2,4.60466E2,9.12136E2,3.47168E2,4.2127285E0,7.49527E2,7.658554E0,1.928425E0,2.8367496E0,4.9093943E0,6.246353E0],"split_indices":[4,5,4,6,0,6,0,0,0,0,0],"split_type":[0,0,0,0,0,0,0,0,0,0,0],"sum_hessian":[5.64E2,3.53E2,2.11E2,2.67E2,8.6E1,8.9E1,1.22E2,1.83E2,8.4E1,3.1E1,5.8E1],"tree_param":{"num_deleted":"0","num_feature":"7","num_nodes":"11","size_leaf_vector":"1"}},{"base_weights":[4.2585413E2,2.6918826E2,6.854478E2,2.2089809E2,4.1941366E0,5.78323E2,7.5825915E0,1.8764515E0,2.7555163E0,4.8618345E0,6.1849484E0],"categories":[],"categories_nodes":[],"categories_segments":[],"categories_sizes":[],"default_left":[0,1,1,0,0,1,0,0,0,0,0],"id":32,"left_children":[1,3,5,7,-1,9,-1,-1,-1,-1,-1],"loss_changes":[2.2793744E7,2.475414E6,1.215064E6,4.38989E5,0E0,3.2428E4,0E0,0E0,0E0,0E0,0E0],"parents":[2147483647,0,0,1,1,2,2,3,3,5,5],"right_children":[2,4,6,8,-1,10,-1,-1,-1,-1,-1],"split_conditions":[6.74091E2,4.62297E2,9.12136E2,3.22275E2,4.1941366E0,7.49527E2,7.5825915E0,1.8764515E0,2.7555163E0,4.8618345E0,6.1849484E0],"split_indices":[4,5,4,4,0,6,0,0,0,0,0],"split_type":[0,0,0,0,0,0,0,0,0,0,0],"sum_hessian":[5.64E2,3.53E2,2.11E2,2.69E2,8.4E1,8.9E1,1.22E2,1.7E2,9.9E1,3.1E1,5.8E1],"tree_param":{"num_deleted":"0","num_feature":"7","num_nodes":"11","size_leaf_vector":"1"}},{"base_weights":[4.216442E2,2.6652133E2,6.786813E2,2.1797733E2,4.1299567E0,5.726625E2,7.507382E0,1.874903E0,2.7521594E0,4.8147354E0,6.1241474E0],"categories":[],"categories_nodes":[],"categories_segments":[],"categories_sizes":[],"default_left":[0,1,1,0,0,1,0,0,0,0,0],"id":33,"left_children":[1,3,5,7,-1,9,-1,-1,-1,-1,-1],"loss_changes":[2.2346984E7,2.427076E6,1.189624E6,4.1607E5,0E0,3.1384E4,0E0,0E0,0E0,0E0,0E0],"parents":[2147483647,0,0,1,1,2,2,3,3,5,5],"right_children":[2,4,6,8,-1,10,-1,-1,-1,-1,-1],"split_conditions":[6.74091E2,4.60466E2,9.12136E2,3.4118E2,4.1299567E0,7.49527E2,7.507382E0,1.874903E0,2.7521594E0,4.8147354E0,6.1241474E0],"split_indices":[4,5,4,6,0,6,0,0,0,0,0],"split_type":[0,0,0,0,0,0,0,0,0,0,0],"sum_hessian":[5.64E2,3.53E2,2.11E2,2.67E2,8.6E1,8.9E1,1.22E2,1.77E2,9E1,3.1E1,5.8E1],"tree_param":{"num_deleted":"0","num_feature":"7","num_nodes":"11","size_leaf_vector":"1"}},{"base_weights":[4.174759E2,2.6388083E2,6.7198145E2,2.1652919E2,4.111875E0,7.6610203E0,5.905116E2,1.8706466E0,2.763561E0,4.4600077E0,6.347085E0],"categories":[],"categories_nodes":[],"categories_segments":[],"categories_sizes":[],"default_left":[0,1,0,0,0,0,1,0,0,0,0],"id":34,"left_children":[1,3,5,7,-1,-1,9,-1,-1,-1,-1],"loss_changes":[2.1908976E7,2.380192E6,1.173224E6,4.24253E5,0E0,0E0,4.70576E5,0E0,0E0,0E0,0E0],"parents":[2147483647,0,0,1,1,2,2,3,3,6,6],"right_children":[2,4,6,8,-1,-1,10,-1,-1,-1,-1],"split_conditions":[6.74091E2,4.62297E2,3E0,3.47168E2,4.111875E0,7.6610203E0,7.89909E2,1.8706466E0,2.763561E0,4.4600077E0,6.347085E0],"split_indices":[4,5,2,6,0,0,4,0,0,0,0],"split_type":[0,0,0,0,0,0,0,0,0,0,0],"sum_hessian":[5.64E2,3.53E2,2.11E2,2.69E2,8.4E1,9.4E1,1.17E2,1.83E2,8.6E1,3E1,8.7E1],"tree_param":{"num_deleted":"0","num_feature":"7","num_nodes":"11","size_leaf_vector":"1"}},{"base_weights":[4.133493E2,2.6126675E2,6.6534875E2,2.1438106E2,4.07124E0,7.585217E0,5.8469806E2,1.8196809E0,2.676634E0,4.4168463E0,6.284335E0],"categories":[],"categories_nodes":[],"categories_segments":[],"categories_sizes":[],"default_left":[0,1,0,0,0,0,1,0,0,0,0],"id":35,"left_children":[1,3,5,7,-1,-1,9,-1,-1,-1,-1],"loss_changes":[2.147964E7,2.33359E6,1.14956E6,4.17595E5,0E0,0E0,4.60492E5,0E0,0E0,0E0,0E0],"parents":[2147483647,0,0,1,1,2,2,3,3,6,6],"right_children":[2,4,6,8,-1,-1,10,-1,-1,-1,-1],"split_conditions":[6.74091E2,4.62297E2,3E0,3.22275E2,4.07124E0,7.585217E0,7.89909E2,1.8196809E0,2.676634E0,4.4168463E0,6.284335E0],"split_indices":[4,5,2,4,0,0,4,0,0,0,0],"split_type":[0,0,0,0,0,0,0,0,0,0,0],"sum_hessian":[5.64E2,3.53E2,2.11E2,2.69E2,8.4E1,9.4E1,1.17E2,1.7E2,9.9E1,3E1,8.7E1],"tree_param":{"num_deleted":"0","num_feature":"7","num_nodes":"11","size_leaf_vector":"1"}},{"base_weights":[4.0926337E2,2.5867828E2,6.587815E2,2.122539E2,4.031007E0,5.5552734E2,7.289774E0,1.8329659E0,2.7105725E0,4.6722507E0,5.940043E0],"categories":[],"categories_nodes":[],"categories_segments":[],"categories_sizes":[],"default_left":[0,1,1,0,0,1,0,0,0,0,0],"id":36,"left_children":[1,3,5,7,-1,9,-1,-1,-1,-1,-1],"loss_changes":[2.1058736E7,2.287912E6,1.131608E6,4.10069E5,0E0,2.8252E4,0E0,0E0,0E0,0E0,0E0],"parents":[2147483647,0,0,1,1,2,2,3,3,5,5],"right_children":[2,4,6,8,-1,10,-1,-1,-1,-1,-1],"split_conditions":[6.74091E2,4.62297E2,9.12136E2,3.47168E2,4.031007E0,7.49527E2,7.289774E0,1.8329659E0,2.7105725E0,4.6722507E0,5.940043E0],"split_indices":[4,5,4,6,0,6,0,0,0,0,0],"split_type":[0,0,0,0,0,0,0,0,0,0,0],"sum_hessian":[5.64E2,3.53E2,2.11E2,2.69E2,8.4E1,8.9E1,1.22E2,1.83E2,8.6E1,3.1E1,5.8E1],"tree_param":{"num_deleted":"0","num_feature":"7","num_nodes":"11","size_leaf_vector":"1"}},{"base_weights":[4.052176E2,2.5611572E2,6.5227814E2,2.0944704E2,3.9693289E0,7.43972E0,5.72929E2,1.7829576E0,2.616656E0,4.3264337E0,6.158373E0],"categories":[],"categories_nodes":[],"categories_segments":[],"categories_sizes":[],"default_left":[0,1,0,0,0,0,1,0,0,0,0],"id":37,"left_children":[1,3,5,7,-1,-1,9,-1,-1,-1,-1],"loss_changes":[2.0645952E7,2.243264E6,1.116224E6,3.89295E5,0E0,0E0,4.43856E5,0E0,0E0,0E0,0E0],"parents":[2147483647,0,0,1,1,2,2,3,3,6,6],"right_children":[2,4,6,8,-1,-1,10,-1,-1,-1,-1],"split_conditions":[6.74091E2,4.60466E2,3E0,3.22275E2,3.9693289E0,7.43972E0,7.89909E2,1.7829576E0,2.616656E0,4.3264337E0,6.158373E0],"split_indices":[4,5,2,4,0,0,4,0,0,0,0],"split_type":[0,0,0,0,0,0,0,0,0,0,0],"sum_hessian":[5.64E2,3.53E2,2.11E2,2.67E2,8.6E1,9.4E1,1.17E2,1.7E2,9.7E1,3E1,8.7E1],"tree_param":{"num_deleted":"0","num_feature":"7","num_nodes":"11","size_leaf_vector":"1"}},{"base_weights":[4.0121194E2,2.535782E2,6.458399E2,2.0805614E2,3.9519446E0,5.671073E2,7.368358E0,1.7960516E0,2.658368E0,4.633911E0,6.0192194E0],"categories":[],"categories_nodes":[],"categories_segments":[],"categories_sizes":[],"default_left":[0,1,1,0,0,1,0,0,0,0,0],"id":38,"left_children":[1,3,5,7,-1,9,-1,-1,-1,-1,-1],"loss_changes":[2.02414E7,2.199898E6,1.100976E6,3.96112E5,0E0,1.47156E5,0E0,0E0,0E0,0E0,0E0],"parents":[2147483647,0,0,1,1,2,2,3,3,5,5],"right_children":[2,4,6,8,-1,10,-1,-1,-1,-1,-1],"split_conditions":[6.74091E2,4.62297E2,9.78568E2,3.47168E2,3.9519446E0,7.89909E2,7.368358E0,1.7960516E0,2.658368E0,4.633911E0,6.0192194E0],"split_indices":[4,5,4,6,0,4,0,0,0,0,0],"split_type":[0,0,0,0,0,0,0,0,0,0,0],"sum_hessian":[5.64E2,3.53E2,2.11E2,2.69E2,8.4E1,1.17E2,9.4E1,1.83E2,8.6E1,3.3E1,8.4E1],"tree_param":{"num_deleted":"0","num_feature":"7","num_nodes":"11","size_leaf_vector":"1"}},{"base_weights":[3.972466E2,2.5106618E2,6.3946655E2,2.0599207E2,3.91289E0,7.296902E0,5.6140955E2,1.7469733E0,2.5744612E0,4.2397203E0,6.0344543E0],"categories":[],"categories_nodes":[],"categories_segments":[],"categories_sizes":[],"default_left":[0,1,0,0,0,0,1,0,0,0,0],"id":39,"left_children":[1,3,5,7,-1,-1,9,-1,-1,-1,-1],"loss_changes":[1.9844856E7,2.156826E6,1.083376E6,3.89791E5,0E0,0E0,4.2588E5,0E0,0E0,0E0,0E0],"parents":[2147483647,0,0,1,1,2,2,3,3,6,6],"right_children":[2,4,6,8,-1,-1,10,-1,-1,-1,-1],"split_conditions":[6.74091E2,4.62297E2,3E0,3.22275E2,3.91289E0,7.296902E0,7.89909E2,1.7469733E0,2.5744612E0,4.2397203E0,6.0344543E0],"split_indices":[4,5,2,4,0,0,4,0,0,0,0],"split_type":[0,0,0,0,0,0,0,0,0,0,0],"sum_hessian":[5.64E2,3.53E2,2.11E2,2.69E2,8.4E1,9.4E1,1.17E2,1.7E2,9.9E1,3E1,8.7E1],"tree_param":{"num_deleted":"0","num_feature":"7","num_nodes":"11","size_leaf_vector":"1"}},{"base_weights":[3.933198E2,2.3634874E2,6.1435004E2,1.8596896E2,3.2979608E2,4.7207138E2,6.759293E2,1.4826322E0,2.0849895E0,2.8854985E0,3.9720266E0,5.540133E0,4.267495E0,7.7641983E0,6.2898164E0],"categories":[],"categories_nodes":[],"categories_segments":[],"categories_sizes":[],"default_left":[0,0,1,0,1,0,0,0,0,0,0,0,0,0,0],"id":40,"left_children":[1,3,5,7,9,11,13,-1,-1,-1,-1,-1,-1,-1,-1],"loss_changes":[1.9457672E7,1.501678E6,1.73108E6,1.542805E5,2.05117E5,3.8391E4,2.71216E5,0E0,0E0,0E0,0E0,0E0,0E0,0E0,0E0],"parents":[2147483647,0,0,1,1,2,2,3,3,4,4,5,5,6,6],"right_children":[2,4,6,8,10,12,14,-1,-1,-1,-1,-1,-1,-1,-1],"split_conditions":[6.09642E2,3.76911E2,8.30043E2,2.65657E2,5.49349E2,2E0,2E0,1.4826322E0,2.0849895E0,2.8854985E0,3.9720266E0,5.540133E0,4.267495E0,7.7641983E0,6.2898164E0],"split_indices":[4,4,4,4,5,1,2,0,0,0,0,0,0,0,0],"split_type":[0,0,0,0,0,0,0,0,0,0,0,0,0,0,0],"sum_hessian":[5.64E2,3.31E2,2.33E2,2.17E2,1.14E2,7.3E1,1.6E2,8.4E1,1.33E2,7.4E1,4E1,2.2E1,5.1E1,4.6E1,1.14E2],"tree_param":{"num_deleted":"0","num_feature":"7","num_nodes":"15","size_leaf_vector":"1"}},{"base_weights":[3.894473E2,2.3401666E2,6.083085E2,1.8412564E2,3.2655774E2,4.674832E2,6.692573E2,1.4679801E0,2.0642953E0,2.8641603E0,3.9466305E0,5.48714E0,4.225641E0,7.6882086E0,6.227465E0],"categories":[],"categories_nodes":[],"categories_segments":[],"categories_sizes":[],"default_left":[0,0,1,0,1,0,0,0,0,0,0,0,0,0,0],"id":41,"left_children":[1,3,5,7,9,11,13,-1,-1,-1,-1,-1,-1,-1,-1],"loss_changes":[1.9077664E7,1.472706E6,1.695592E6,1.511925E5,2.01357E5,3.8145E4,2.66776E5,0E0,0E0,0E0,0E0,0E0,0E0,0E0,0E0],"parents":[2147483647,0,0,1,1,2,2,3,3,4,4,5,5,6,6],"right_children":[2,4,6,8,10,12,14,-1,-1,-1,-1,-1,-1,-1,-1],"split_conditions":[6.09642E2,3.76911E2,8.30043E2,2.65657E2,5.54184E2,2E0,2E0,1.4679801E0,2.0642953E0,2.8641603E0,3.9466305E0,5.48714E0,4.225641E0,7.6882086E0,6.227465E0],"split_indices":[4,4,4,4,5,1,2,0,0,0,0,0,0,0,0],"split_type":[0,0,0,0,0,0,0,0,0,0,0,0,0,0,0],"sum_hessian":[5.64E2,3.31E2,2.33E2,2.17E2,1.14E2,7.3E1,1.6E2,8.4E1,1.33E2,7.5E1,3.9E1,2.2E1,5.1E1,4.6E1,1.14E2],"tree_param":{"num_deleted":"0","num_feature":"7","num_nodes":"15","size_leaf_vector":"1"}},{"base_weights":[3.8561295E2,2.4369112E2,6.207767E2,1.9987894E2,3.7999227E0,5.446056E2,7.088547E0,1.7238134E0,2.5573726E0,4.4552E0,5.7783265E0],"categories":[],"categories_nodes":[],"categories_segments":[],"categories_sizes":[],"default_left":[0,1,1,0,0,1,0,0,0,0,0],"id":42,"left_children":[1,3,5,7,-1,9,-1,-1,-1,-1,-1],"loss_changes":[1.8705512E7,2.038012E6,1.036264E6,3.70627E5,0E0,1.3106E5,0E0,0E0,0E0,0E0,0E0],"parents":[2147483647,0,0,1,1,2,2,3,3,5,5],"right_children":[2,4,6,8,-1,10,-1,-1,-1,-1,-1],"split_conditions":[6.74091E2,4.62297E2,9.78568E2,3.47168E2,3.7999227E0,7.89909E2,7.088547E0,1.7238134E0,2.5573726E0,4.4552E0,5.7783265E0],"split_indices":[4,5,4,6,0,4,0,0,0,0,0],"split_type":[0,0,0,0,0,0,0,0,0,0,0],"sum_hessian":[5.64E2,3.53E2,2.11E2,2.69E2,8.4E1,1.17E2,9.4E1,1.83E2,8.6E1,3.3E1,8.4E1],"tree_param":{"num_deleted":"0","num_feature":"7","num_nodes":"11","size_leaf_vector":"1"}},{"base_weights":[3.8180176E2,2.2938539E2,5.96419E2,1.804432E2,3.2016812E2,4.5841757E2,6.561438E2,1.4463613E0,2.0311937E0,2.807227E0,3.8711019E0,5.385997E0,4.141367E0,7.543864E0,6.1028686E0],"categories":[],"categories_nodes":[],"categories_segments":[],"categories_sizes":[],"default_left":[0,0,1,0,1,0,0,0,0,0,0,0,0,0,0],"id":43,"left_children":[1,3,5,7,9,11,13,-1,-1,-1,-1,-1,-1,-1,-1],"loss_changes":[1.8345008E7,1.417338E6,1.627872E6,1.47631E5,1.94994E5,3.9687E4,2.64936E5,0E0,0E0,0E0,0E0,0E0,0E0,0E0,0E0],"parents":[2147483647,0,0,1,1,2,2,3,3,4,4,5,5,6,6],"right_children":[2,4,6,8,10,12,14,-1,-1,-1,-1,-1,-1,-1,-1],"split_conditions":[6.09642E2,3.76911E2,8.30043E2,2.75679E2,5.54184E2,2E0,2E0,1.4463613E0,2.0311937E0,2.807227E0,3.8711019E0,5.385997E0,4.141367E0,7.543864E0,6.1028686E0],"split_indices":[4,4,4,6,5,1,2,0,0,0,0,0,0,0,0],"split_type":[0,0,0,0,0,0,0,0,0,0,0,0,0,0,0],"sum_hessian":[5.64E2,3.31E2,2.33E2,2.17E2,1.14E2,7.3E1,1.6E2,8.7E1,1.3E2,7.5E1,3.9E1,2.2E1,5.1E1,4.6E1,1.14E2],"tree_param":{"num_deleted":"0","num_feature":"7","num_nodes":"15","size_leaf_vector":"1"}},{"base_weights":[3.7804276E2,2.2712213E2,5.9055383E2,1.7865472E2,3.170245E2,4.5396216E2,6.496671E2,1.4218004E0,2.004584E0,2.7725265E0,3.8204556E0,5.334479E0,4.1007495E0,7.4700303E0,6.0423703E0],"categories":[],"categories_nodes":[],"categories_segments":[],"categories_sizes":[],"default_left":[0,0,1,0,1,0,0,0,0,0,0,0,0,0,0],"id":44,"left_children":[1,3,5,7,9,11,13,-1,-1,-1,-1,-1,-1,-1,-1],"loss_changes":[1.7986728E7,1.39E6,1.594472E6,1.44871E5,1.91467E5,3.9389E4,2.60568E5,0E0,0E0,0E0,0E0,0E0,0E0,0E0,0E0],"parents":[2147483647,0,0,1,1,2,2,3,3,4,4,5,5,6,6],"right_children":[2,4,6,8,10,12,14,-1,-1,-1,-1,-1,-1,-1,-1],"split_conditions":[6.09642E2,3.76911E2,8.30043E2,2.65657E2,5.49349E2,2E0,2E0,1.4218004E0,2.004584E0,2.7725265E0,3.8204556E0,5.334479E0,4.1007495E0,7.4700303E0,6.0423703E0],"split_indices":[4,4,4,4,5,1,2,0,0,0,0,0,0,0,0],"split_type":[0,0,0,0,0,0,0,0,0,0,0,0,0,0,0],"sum_hessian":[5.64E2,3.31E2,2.33E2,2.17E2,1.14E2,7.3E1,1.6E2,8.4E1,1.33E2,7.4E1,4E1,2.2E1,5.1E1,4.6E1,1.14E2],"tree_param":{"num_deleted":"0","num_feature":"7","num_nodes":"15","size_leaf_vector":"1"}},{"base_weights":[3.7432068E2,2.2488109E2,5.847464E2,1.768839E2,3.139116E2,4.4955002E2,6.4325433E2,1.4174758E0,1.9913664E0,2.7520256E0,3.796109E0,5.2834535E0,4.0605307E0,7.3969193E0,5.982472E0],"categories":[],"categories_nodes":[],"categories_segments":[],"categories_sizes":[],"default_left":[0,0,1,0,1,0,0,0,0,0,0,0,0,0,0],"id":45,"left_children":[1,3,5,7,9,11,13,-1,-1,-1,-1,-1,-1,-1,-1],"loss_changes":[1.7635448E7,1.363182E6,1.561776E6,1.422225E5,1.87993E5,3.9088E4,2.56288E5,0E0,0E0,0E0,0E0,0E0,0E0,0E0,0E0],"parents":[2147483647,0,0,1,1,2,2,3,3,4,4,5,5,6,6],"right_children":[2,4,6,8,10,12,14,-1,-1,-1,-1,-1,-1,-1,-1],"split_conditions":[6.09642E2,3.76911E2,8.30043E2,2.75679E2,5.54184E2,2E0,2E0,1.4174758E0,1.9913664E0,2.7520256E0,3.796109E0,5.2834535E0,4.0605307E0,7.3969193E0,5.982472E0],"split_indices":[4,4,4,6,5,1,2,0,0,0,0,0,0,0,0],"split_type":[0,0,0,0,0,0,0,0,0,0,0,0,0,0,0],"sum_hessian":[5.64E2,3.31E2,2.33E2,2.17E2,1.14E2,7.3E1,1.6E2,8.7E1,1.3E2,7.5E1,3.9E1,2.2E1,5.1E1,4.6E1,1.14E2],"tree_param":{"num_deleted":"0","num_feature":"7","num_nodes":"15","size_leaf_vector":"1"}},{"base_weights":[3.706353E2,2.2266226E2,5.7899603E2,1.7513069E2,3.108294E2,4.4518082E2,6.369049E2,1.393404E0,1.9652653E0,2.7180176E0,3.7464025E0,5.2329154E0,4.020706E0,7.324524E0,5.9231677E0],"categories":[],"categories_nodes":[],"categories_segments":[],"categories_sizes":[],"default_left":[0,0,1,0,1,0,0,0,0,0,0,0,0,0,0],"id":46,"left_children":[1,3,5,7,9,11,13,-1,-1,-1,-1,-1,-1,-1,-1],"loss_changes":[1.7291024E7,1.336885E6,1.529752E6,1.395525E5,1.84566E5,3.8783E4,2.52064E5,0E0,0E0,0E0,0E0,0E0,0E0,0E0,0E0],"parents":[2147483647,0,0,1,1,2,2,3,3,4,4,5,5,6,6],"right_children":[2,4,6,8,10,12,14,-1,-1,-1,-1,-1,-1,-1,-1],"split_conditions":[6.09642E2,3.76911E2,8.30043E2,2.65657E2,5.49349E2,2E0,2E0,1.393404E0,1.9652653E0,2.7180176E0,3.7464025E0,5.2329154E0,4.020706E0,7.324524E0,5.9231677E0],"split_indices":[4,4,4,4,5,1,2,0,0,0,0,0,0,0,0],"split_type":[0,0,0,0,0,0,0,0,0,0,0,0,0,0,0],"sum_hessian":[5.64E2,3.31E2,2.33E2,2.17E2,1.14E2,7.3E1,1.6E2,8.4E1,1.33E2,7.4E1,4E1,2.2E1,5.1E1,4.6E1,1.14E2],"tree_param":{"num_deleted":"0","num_feature":"7","num_nodes":"15","size_leaf_vector":"1"}},{"base_weights":[3.6698618E2,2.2046524E2,5.7330225E2,1.7339479E2,3.0777734E2,4.4085403E2,6.3061816E2,1.3891667E0,1.9523203E0,2.6979098E0,3.7225695E0,5.182862E0,3.9812725E0,7.252837E0,5.864451E0],"categories":[],"categories_nodes":[],"categories_segments":[],"categories_sizes":[],"default_left":[0,0,1,0,1,0,0,0,0,0,0,0,0,0,0],"id":47,"left_children":[1,3,5,7,9,11,13,-1,-1,-1,-1,-1,-1,-1,-1],"loss_changes":[1.6953344E7,1.311092E6,1.498376E6,1.37013E5,1.81245E5,3.8479E4,2.479E5,0E0,0E0,0E0,0E0,0E0,0E0,0E0,0E0],"parents":[2147483647,0,0,1,1,2,2,3,3,4,4,5,5,6,6],"right_children":[2,4,6,8,10,12,14,-1,-1,-1,-1,-1,-1,-1,-1],"split_conditions":[6.09642E2,3.76911E2,8.30043E2,2.75679E2,5.54184E2,2E0,2E0,1.3891667E0,1.9523203E0,2.6979098E0,3.7225695E0,5.182862E0,3.9812725E0,7.252837E0,5.864451E0],"split_indices":[4,4,4,6,5,1,2,0,0,0,0,0,0,0,0],"split_type":[0,0,0,0,0,0,0,0,0,0,0,0,0,0,0],"sum_hessian":[5.64E2,3.31E2,2.33E2,2.17E2,1.14E2,7.3E1,1.6E2,8.7E1,1.3E2,7.5E1,3.9E1,2.2E1,5.1E1,4.6E1,1.14E2],"tree_param":{"num_deleted":"0","num_feature":"7","num_nodes":"15","size_leaf_vector":"1"}},{"base_weights":[3.6337302E2,2.1828998E2,5.676644E2,1.7167618E2,3.0475537E2,4.3656937E2,6.243935E2,1.3655745E0,1.9267181E0,2.6645803E0,3.673784E0,5.1332865E0,3.9422252E0,7.1818523E0,5.8063164E0],"categories":[],"categories_nodes":[],"categories_segments":[],"categories_sizes":[],"default_left":[0,0,1,0,1,0,0,0,0,0,0,0,0,0,0],"id":48,"left_children":[1,3,5,7,9,11,13,-1,-1,-1,-1,-1,-1,-1,-1],"loss_changes":[1.662224E7,1.2858E6,1.467632E6,1.344295E5,1.77913E5,3.8173E4,2.43824E5,0E0,0E0,0E0,0E0,0E0,0E0,0E0,0E0],"parents":[2147483647,0,0,1,1,2,2,3,3,4,4,5,5,6,6],"right_children":[2,4,6,8,10,12,14,-1,-1,-1,-1,-1,-1,-1,-1],"split_conditions":[6.09642E2,3.76911E2,8.30043E2,2.65657E2,5.49349E2,2E0,2E0,1.3655745E0,1.9267181E0,2.6645803E0,3.673784E0,5.1332865E0,3.9422252E0,7.1818523E0,5.8063164E0],"split_indices":[4,4,4,4,5,1,2,0,0,0,0,0,0,0,0],"split_type":[0,0,0,0,0,0,0,0,0,0,0,0,0,0,0],"sum_hessian":[5.64E2,3.31E2,2.33E2,2.17E2,1.14E2,7.3E1,1.6E2,8.4E1,1.33E2,7.4E1,4E1,2.2E1,5.1E1,4.6E1,1.14E2],"tree_param":{"num_deleted":"0","num_feature":"7","num_nodes":"15","size_leaf_vector":"1"}},{"base_weights":[3.5979538E2,2.161361E2,5.620821E2,1.6997452E2,3.0176294E2,4.323263E2,6.182302E2,1.3614221E0,1.9140403E0,2.6448576E0,3.650455E0,5.0841856E0,3.903561E0,7.111562E0,5.7487583E0],"categories":[],"categories_nodes":[],"categories_segments":[],"categories_sizes":[],"default_left":[0,0,1,0,1,0,0,0,0,0,0,0,0,0,0],"id":49,"left_children":[1,3,5,7,9,11,13,-1,-1,-1,-1,-1,-1,-1,-1],"loss_changes":[1.6297624E7,1.260995E6,1.437536E6,1.31994E5,1.74735E5,3.7863E4,2.398E5,0E0,0E0,0E0,0E0,0E0,0E0,0E0,0E0],"parents":[2147483647,0,0,1,1,2,2,3,3,4,4,5,5,6,6],"right_children":[2,4,6,8,10,12,14,-1,-1,-1,-1,-1,-1,-1,-1],"split_conditions":[6.09642E2,3.76911E2,8.30043E2,2.75679E2,5.54184E2,2E0,2E0,1.3614221E0,1.9140403E0,2.6448576E0,3.650455E0,5.0841856E0,3.903561E0,7.111562E0,5.7487583E0],"split_indices":[4,4,4,6,5,1,2,0,0,0,0,0,0,0,0],"split_type":[0,0,0,0,0,0,0,0,0,0,0,0,0,0,0],"sum_hessian":[5.64E2,3.31E2,2.33E2,2.17E2,1.14E2,7.3E1,1.6E2,8.7E1,1.3E2,7.5E1,3.9E1,2.2E1,5.1E1,4.6E1,1.14E2],"tree_param":{"num_deleted":"0","num_feature":"7","num_nodes":"15","size_leaf_vector":"1"}},{"base_weights":[3.5625305E2,2.250777E2,5.7361066E2,1.8379265E2,3.496675E0,6.564236E0,5.0207812E2,1.5595351E0,2.3049364E0,3.7760751E0,5.4022026E0],"categories":[],"categories_nodes":[],"categories_segments":[],"categories_sizes":[],"default_left":[0,1,0,0,0,0,1,0,0,0,0],"id":50,"left_children":[1,3,5,7,-1,-1,9,-1,-1,-1,-1],"loss_changes":[1.5980152E7,1.756604E6,9.26272E5,3.12484E5,0E0,0E0,3.56222E5,0E0,0E0,0E0,0E0],"parents":[2147483647,0,0,1,1,2,2,3,3,6,6],"right_children":[2,4,6,8,-1,-1,10,-1,-1,-1,-1],"split_conditions":[6.74091E2,4.60466E2,3E0,3.22275E2,3.496675E0,6.564236E0,7.89909E2,1.5595351E0,2.3049364E0,3.7760751E0,5.4022026E0],"split_indices":[4,5,2,4,0,0,4,0,0,0,0],"split_type":[0,0,0,0,0,0,0,0,0,0,0],"sum_hessian":[5.64E2,3.53E2,2.11E2,2.67E2,8.6E1,9.4E1,1.17E2,1.7E2,9.7E1,3E1,8.7E1],"tree_param":{"num_deleted":"0","num_feature":"7","num_nodes":"11","size_leaf_vector":"1"}},{"base_weights":[3.527314E2,2.1185751E2,5.510964E2,1.665767E2,2.9585196E2,4.598363E2,6.297145E2,1.3292162E0,1.8749652E0,2.592091E0,3.5807705E0,3.9392135E0,5.0663996E0,6.9777136E0,5.7999516E0],"categories":[],"categories_nodes":[],"categories_segments":[],"categories_sizes":[],"default_left":[0,0,1,0,1,1,0,0,0,0,0,0,0,0,0],"id":51,"left_children":[1,3,5,7,9,11,13,-1,-1,-1,-1,-1,-1,-1,-1],"loss_changes":[1.5671856E7,1.213427E6,1.38932E6,1.285625E5,1.69395E5,1.4595E5,1.15E4,0E0,0E0,0E0,0E0,0E0,0E0,0E0,0E0],"parents":[2147483647,0,0,1,1,2,2,3,3,4,4,5,5,6,6],"right_children":[2,4,6,8,10,12,14,-1,-1,-1,-1,-1,-1,-1,-1],"split_conditions":[6.09642E2,3.76911E2,9.12136E2,2.67953E2,5.54184E2,7.49527E2,2E0,1.3292162E0,1.8749652E0,2.592091E0,3.5807705E0,3.9392135E0,5.0663996E0,6.9777136E0,5.7999516E0],"split_indices":[4,4,4,4,5,6,2,0,0,0,0,0,0,0,0],"split_type":[0,0,0,0,0,0,0,0,0,0,0,0,0,0,0],"sum_hessian":[5.64E2,3.31E2,2.33E2,2.17E2,1.14E2,1.11E2,1.22E2,8.6E1,1.31E2,7.5E1,3.9E1,5E1,6.1E1,4.6E1,7.6E1],"tree_param":{"num_deleted":"0","num_feature":"7","num_nodes":"15","size_leaf_vector":"1"}},{"base_weights":[3.4925925E2,2.0976718E2,5.4567847E2,1.6492564E2,2.929471E2,4.5531836E2,6.235212E2,1.3188846E0,1.8585957E0,2.5665112E0,3.5458581E0,3.9005938E0,5.0165524E0,6.90942E0,5.742705E0],"categories":[],"categories_nodes":[],"categories_segments":[],"categories_sizes":[],"default_left":[0,0,1,0,1,1,0,0,0,0,0,0,0,0,0],"id":52,"left_children":[1,3,5,7,9,11,13,-1,-1,-1,-1,-1,-1,-1,-1],"loss_changes":[1.536592E7,1.190018E6,1.362024E6,1.26256E5,1.66278E5,1.43E5,1.164E4,0E0,0E0,0E0,0E0,0E0,0E0,0E0,0E0],"parents":[2147483647,0,0,1,1,2,2,3,3,4,4,5,5,6,6],"right_children":[2,4,6,8,10,12,14,-1,-1,-1,-1,-1,-1,-1,-1],"split_conditions":[6.09642E2,3.76911E2,9.12136E2,2.75679E2,5.54184E2,7.49527E2,2E0,1.3188846E0,1.8585957E0,2.5665112E0,3.5458581E0,3.9005938E0,5.0165524E0,6.90942E0,5.742705E0],"split_indices":[4,4,4,6,5,6,2,0,0,0,0,0,0,0,0],"split_type":[0,0,0,0,0,0,0,0,0,0,0,0,0,0,0],"sum_hessian":[5.64E2,3.31E2,2.33E2,2.17E2,1.14E2,1.11E2,1.22E2,8.7E1,1.3E2,7.5E1,3.9E1,5E1,6.1E1,4.6E1,7.6E1],"tree_param":{"num_deleted":"0","num_feature":"7","num_nodes":"15","size_leaf_vector":"1"}},{"base_weights":[3.4582126E2,2.1844E2,5.568927E2,1.7893063E2,3.4137044E0,6.375729E0,4.8721884E2,1.5386676E0,2.2988262E0,4.253848E0,5.6853127E0],"categories":[],"categories_nodes":[],"categories_segments":[],"categories_sizes":[],"default_left":[0,1,0,0,0,0,0,0,0,0,0],"id":53,"left_children":[1,3,5,7,-1,-1,9,-1,-1,-1,-1],"loss_changes":[1.5069256E7,1.658262E6,8.8108E5,3.09434E5,0E0,0E0,3.51444E5,0E0,0E0,0E0,0E0],"parents":[2147483647,0,0,1,1,2,2,3,3,6,6],"right_children":[2,4,6,8,-1,-1,10,-1,-1,-1,-1],"split_conditions":[6.74091E2,4.62297E2,3E0,3.47168E2,3.4137044E0,6.375729E0,1.2E1,1.5386676E0,2.2988262E0,4.253848E0,5.6853127E0],"split_indices":[4,5,2,6,0,0,2,0,0,0,0],"split_type":[0,0,0,0,0,0,0,0,0,0,0],"sum_hessian":[5.64E2,3.53E2,2.11E2,2.69E2,8.4E1,9.4E1,1.17E2,1.83E2,8.6E1,7E1,4.7E1],"tree_param":{"num_deleted":"0","num_feature":"7","num_nodes":"11","size_leaf_vector":"1"}},{"base_weights":[3.4240475E2,2.056164E2,5.350173E2,1.5781133E2,2.805728E2,4.4637445E2,6.11383E2,1.2811958E0,1.7736495E0,2.4661684E0,3.4661074E0,3.8226652E0,4.9190874E0,5.267246E0,6.458361E0],"categories":[],"categories_nodes":[],"categories_segments":[],"categories_sizes":[],"default_left":[0,0,1,0,1,1,0,0,0,0,0,0,0,0,0],"id":54,"left_children":[1,3,5,7,9,11,13,-1,-1,-1,-1,-1,-1,-1,-1],"loss_changes":[1.4776124E7,1.145377E6,1.311104E6,9.6295E4,2.01546E5,1.389E5,1.858E4,0E0,0E0,0E0,0E0,0E0,0E0,0E0,0E0],"parents":[2147483647,0,0,1,1,2,2,3,3,4,4,5,5,6,6],"right_children":[2,4,6,8,10,12,14,-1,-1,-1,-1,-1,-1,-1,-1],"split_conditions":[6.09642E2,3.66934E2,9.12136E2,2.65657E2,5.49349E2,7.49527E2,9.83374E2,1.2811958E0,1.7736495E0,2.4661684E0,3.4661074E0,3.8226652E0,4.9190874E0,5.267246E0,6.458361E0],"split_indices":[4,5,4,4,5,6,6,0,0,0,0,0,0,0,0],"split_type":[0,0,0,0,0,0,0,0,0,0,0,0,0,0,0],"sum_hessian":[5.64E2,3.31E2,2.33E2,2.04E2,1.27E2,1.11E2,1.22E2,8.4E1,1.2E2,8.7E1,4E1,5E1,6.1E1,4E1,8.2E1],"tree_param":{"num_deleted":"0","num_feature":"7","num_nodes":"15","size_leaf_vector":"1"}},{"base_weights":[3.3903284E2,2.1412624E2,5.460041E2,1.7537495E2,3.346994E0,6.252973E0,4.775392E2,1.5079348E0,2.2534752E0,4.1666217E0,5.5763774E0],"categories":[],"categories_nodes":[],"categories_segments":[],"categories_sizes":[],"default_left":[0,1,0,0,0,0,0,0,0,0,0],"id":55,"left_children":[1,3,5,7,-1,-1,9,-1,-1,-1,-1],"loss_changes":[1.4489512E7,1.595319E6,8.52308E5,2.97687E5,0E0,0E0,3.43038E5,0E0,0E0,0E0,0E0],"parents":[2147483647,0,0,1,1,2,2,3,3,6,6],"right_children":[2,4,6,8,-1,-1,10,-1,-1,-1,-1],"split_conditions":[6.74091E2,4.62297E2,3E0,3.47168E2,3.346994E0,6.252973E0,1.2E1,1.5079348E0,2.2534752E0,4.1666217E0,5.5763774E0],"split_indices":[4,5,2,6,0,0,2,0,0,0,0],"split_type":[0,0,0,0,0,0,0,0,0,0,0],"sum_hessian":[5.64E2,3.53E2,2.11E2,2.69E2,8.4E1,9.4E1,1.17E2,1.83E2,8.6E1,7E1,4.7E1],"tree_param":{"num_deleted":"0","num_feature":"7","num_nodes":"11","size_leaf_vector":"1"}},{"base_weights":[3.356834E2,2.0154735E2,5.245616E2,1.5836348E2,2.8165637E2,4.2753122E2,5.9133685E2,1.2626119E0,1.787195E0,2.4663396E0,3.4115746E0,3.7600317E0,4.7872653E0,6.6552405E0,5.4602427E0],"categories":[],"categories_nodes":[],"categories_segments":[],"categories_sizes":[],"default_left":[0,0,1,0,1,1,0,0,0,0,0,0,0,0,0],"id":56,"left_children":[1,3,5,7,9,11,13,-1,-1,-1,-1,-1,-1,-1,-1],"loss_changes":[1.4208764E7,1.103921E6,1.263324E6,1.19893E5,1.55504E5,8.1158E4,9.3792E4,0E0,0E0,0E0,0E0,0E0,0E0,0E0,0E0],"parents":[2147483647,0,0,1,1,2,2,3,3,4,4,5,5,6,6],"right_children":[2,4,6,8,10,12,14,-1,-1,-1,-1,-1,-1,-1,-1],"split_conditions":[6.09642E2,3.76911E2,8.83676E2,2.75679E2,5.54184E2,7.79406E2,2E0,1.2626119E0,1.787195E0,2.4663396E0,3.4115746E0,3.7600317E0,4.7872653E0,6.6552405E0,5.4602427E0],"split_indices":[4,4,4,6,5,5,2,0,0,0,0,0,0,0,0],"split_type":[0,0,0,0,0,0,0,0,0,0,0,0,0,0,0],"sum_hessian":[5.64E2,3.31E2,2.33E2,2.17E2,1.14E2,9.8E1,1.35E2,8.7E1,1.3E2,7.5E1,3.9E1,5.3E1,4.5E1,4.6E1,8.9E1],"tree_param":{"num_deleted":"0","num_feature":"7","num_nodes":"15","size_leaf_vector":"1"}},{"base_weights":[3.3237894E2,2.0990057E2,5.353269E2,1.7189279E2,3.2816174E0,4.6803085E2,6.1328063E0,1.450916E0,2.1600385E0,3.8303103E0,4.9652452E0],"categories":[],"categories_nodes":[],"categories_segments":[],"categories_sizes":[],"default_left":[0,1,1,0,0,1,0,0,0,0,0],"id":57,"left_children":[1,3,5,7,-1,9,-1,-1,-1,-1,-1],"loss_changes":[1.3931688E7,1.534765E6,8.25112E5,2.87862E5,0E0,9.5608E4,0E0,0E0,0E0,0E0,0E0],"parents":[2147483647,0,0,1,1,2,2,3,3,5,5],"right_children":[2,4,6,8,-1,10,-1,-1,-1,-1,-1],"split_conditions":[6.74091E2,4.62297E2,9.78568E2,3.22275E2,3.2816174E0,7.89909E2,6.1328063E0,1.450916E0,2.1600385E0,3.8303103E0,4.9652452E0],"split_indices":[4,5,4,4,0,4,0,0,0,0,0],"split_type":[0,0,0,0,0,0,0,0,0,0,0],"sum_hessian":[5.64E2,3.53E2,2.11E2,2.69E2,8.4E1,1.17E2,9.4E1,1.7E2,9.9E1,3.3E1,8.4E1],"tree_param":{"num_deleted":"0","num_feature":"7","num_nodes":"11","size_leaf_vector":"1"}},{"base_weights":[3.2909378E2,1.9755888E2,5.143096E2,1.5151666E2,2.6975494E2,4.2901514E2,5.877946E2,1.226508E0,1.7054212E0,2.3701024E0,3.334569E0,3.672078E0,4.72937E0,5.0512E0,6.21552E0],"categories":[],"categories_nodes":[],"categories_segments":[],"categories_sizes":[],"default_left":[0,0,1,0,1,1,0,0,0,0,0,0,0,0,0],"id":58,"left_children":[1,3,5,7,9,11,13,-1,-1,-1,-1,-1,-1,-1,-1],"loss_changes":[1.3663108E7,1.062717E6,1.214512E6,9.16665E4,1.87963E5,1.3038E5,2.932E4,0E0,0E0,0E0,0E0,0E0,0E0,0E0,0E0],"parents":[2147483647,0,0,1,1,2,2,3,3,4,4,5,5,6,6],"right_children":[2,4,6,8,10,12,14,-1,-1,-1,-1,-1,-1,-1,-1],"split_conditions":[6.09642E2,3.66934E2,9.12136E2,2.65657E2,5.49349E2,7.49527E2,9.83374E2,1.226508E0,1.7054212E0,2.3701024E0,3.334569E0,3.672078E0,4.72937E0,5.0512E0,6.21552E0],"split_indices":[4,5,4,4,5,6,6,0,0,0,0,0,0,0,0],"split_type":[0,0,0,0,0,0,0,0,0,0,0,0,0,0,0],"sum_hessian":[5.64E2,3.31E2,2.33E2,2.04E2,1.27E2,1.11E2,1.22E2,8.4E1,1.2E2,8.7E1,4E1,5E1,6.1E1,4E1,8.2E1],"tree_param":{"num_deleted":"0","num_feature":"7","num_nodes":"15","size_leaf_vector":"1"}},{"base_weights":[3.2585294E2,1.9560931E2,5.0925052E2,1.5362265E2,2.735005E2,3.9116754E2,5.6036163E2,1.2231432E0,1.734815E0,2.3943865E0,3.313804E0,4.634893E0,3.516566E0,6.469744E0,5.2009063E0],"categories":[],"categories_nodes":[],"categories_segments":[],"categories_sizes":[],"default_left":[0,0,1,0,1,0,0,0,0,0,0,0,0,0,0],"id":59,"left_children":[1,3,5,7,9,11,13,-1,-1,-1,-1,-1,-1,-1,-1],"loss_changes":[1.3396184E7,1.043752E6,1.193076E6,1.14322E5,1.47377E5,4.8466E4,2.2508E5,0E0,0E0,0E0,0E0,0E0,0E0,0E0,0E0],"parents":[2147483647,0,0,1,1,2,2,3,3,4,4,5,5,6,6],"right_children":[2,4,6,8,10,12,14,-1,-1,-1,-1,-1,-1,-1,-1],"split_conditions":[6.09642E2,3.76911E2,8.30043E2,2.75679E2,5.54184E2,2E0,2E0,1.2231432E0,1.734815E0,2.3943865E0,3.313804E0,4.634893E0,3.516566E0,6.469744E0,5.2009063E0],"split_indices":[4,4,4,6,5,1,2,0,0,0,0,0,0,0,0],"split_type":[0,0,0,0,0,0,0,0,0,0,0,0,0,0,0],"sum_hessian":[5.64E2,3.31E2,2.33E2,2.17E2,1.14E2,7.3E1,1.6E2,8.7E1,1.3E2,7.5E1,3.9E1,2.2E1,5.1E1,4.6E1,1.14E2],"tree_param":{"num_deleted":"0","num_feature":"7","num_nodes":"15","size_leaf_vector":"1"}},{"base_weights":[3.2264484E2,1.9367932E2,5.042427E2,1.4848407E2,2.6454922E2,4.2052368E2,5.763751E2,1.2019987E0,1.67126E0,2.3244977E0,3.2699313E0,3.5999522E0,4.635306E0,4.95087E0,6.095852E0],"categories":[],"categories_nodes":[],"categories_segments":[],"categories_sizes":[],"default_left":[0,0,1,0,1,1,0,0,0,0,0,0,0,0,0],"id":60,"left_children":[1,3,5,7,9,11,13,-1,-1,-1,-1,-1,-1,-1,-1],"loss_changes":[1.3134556E7,1.024109E6,1.170716E6,8.8002E4,1.80556E5,1.24682E5,3.0252E4,0E0,0E0,0E0,0E0,0E0,0E0,0E0,0E0],"parents":[2147483647,0,0,1,1,2,2,3,3,4,4,5,5,6,6],"right_children":[2,4,6,8,10,12,14,-1,-1,-1,-1,-1,-1,-1,-1],"split_conditions":[6.09642E2,3.66934E2,9.12136E2,2.65657E2,5.49349E2,7.49527E2,9.83374E2,1.2019987E0,1.67126E0,2.3244977E0,3.2699313E0,3.5999522E0,4.635306E0,4.95087E0,6.095852E0],"split_indices":[4,5,4,4,5,6,6,0,0,0,0,0,0,0,0],"split_type":[0,0,0,0,0,0,0,0,0,0,0,0,0,0,0],"sum_hessian":[5.64E2,3.31E2,2.33E2,2.04E2,1.27E2,1.11E2,1.22E2,8.4E1,1.2E2,8.7E1,4E1,5E1,6.1E1,4E1,8.2E1],"tree_param":{"num_deleted":"0","num_feature":"7","num_nodes":"15","size_leaf_vector":"1"}},{"base_weights":[3.194675E2,2.016987E2,5.1461224E2,1.6455025E2,3.1381464E0,5.9034186E2,4.4928235E2,1.3926756E0,2.0698683E0,5.006956E0,6.279289E0,3.9061196E0,5.2670555E0],"categories":[],"categories_nodes":[],"categories_segments":[],"categories_sizes":[],"default_left":[0,1,0,0,0,0,0,0,0,0,0,0,0],"id":61,"left_children":[1,3,5,7,-1,9,11,-1,-1,-1,-1,-1,-1],"loss_changes":[1.2881012E7,1.422749E6,7.8362E5,2.587135E5,0E0,5.704E3,3.30272E5,0E0,0E0,0E0,0E0,0E0,0E0],"parents":[2147483647,0,0,1,1,2,2,3,3,5,5,6,6],"right_children":[2,4,6,8,-1,10,12,-1,-1,-1,-1,-1,-1],"split_conditions":[6.74091E2,4.60466E2,3E0,3.22275E2,3.1381464E0,1.033182E3,1.2E1,1.3926756E0,2.0698683E0,5.006956E0,6.279289E0,3.9061196E0,5.2670555E0],"split_indices":[4,5,2,4,0,4,2,0,0,0,0,0,0],"split_type":[0,0,0,0,0,0,0,0,0,0,0,0,0],"sum_hessian":[5.64E2,3.53E2,2.11E2,2.67E2,8.6E1,9.4E1,1.17E2,1.7E2,9.7E1,3.2E1,6.2E1,7E1,4.7E1],"tree_param":{"num_deleted":"0","num_feature":"7","num_nodes":"13","size_leaf_vector":"1"}},{"base_weights":[3.163207E2,1.8984521E2,4.9441278E2,1.49025E2,2.6557535E2,3.7963657E2,5.440961E2,1.1848954E0,1.6839976E0,2.3243554E0,3.2190154E0,4.5080004E0,3.4085968E0,6.2866306E0,5.0480275E0],"categories":[],"categories_nodes":[],"categories_segments":[],"categories_sizes":[],"default_left":[0,0,1,0,1,0,0,0,0,0,0,0,0,0,0],"id":62,"left_children":[1,3,5,7,9,11,13,-1,-1,-1,-1,-1,-1,-1,-1],"loss_changes":[1.263236E7,9.86741E5,1.12782E6,1.09019E5,1.39842E5,5.0543E4,2.17644E5,0E0,0E0,0E0,0E0,0E0,0E0,0E0,0E0],"parents":[2147483647,0,0,1,1,2,2,3,3,4,4,5,5,6,6],"right_children":[2,4,6,8,10,12,14,-1,-1,-1,-1,-1,-1,-1,-1],"split_conditions":[6.09642E2,3.76911E2,8.30043E2,2.75679E2,5.54184E2,2E0,2E0,1.1848954E0,1.6839976E0,2.3243554E0,3.2190154E0,4.5080004E0,3.4085968E0,6.2866306E0,5.0480275E0],"split_indices":[4,4,4,6,5,1,2,0,0,0,0,0,0,0,0],"split_type":[0,0,0,0,0,0,0,0,0,0,0,0,0,0,0],"sum_hessian":[5.64E2,3.31E2,2.33E2,2.17E2,1.14E2,7.3E1,1.6E2,8.7E1,1.3E2,7.5E1,3.9E1,2.2E1,5.1E1,4.6E1,1.14E2],"tree_param":{"num_deleted":"0","num_feature":"7","num_nodes":"15","size_leaf_vector":"1"}},{"base_weights":[3.1320645E2,1.879721E2,4.895509E2,1.4401932E2,2.5689673E2,3.9876587E2,5.520374E2,1.1643541E0,1.6220618E0,2.2620516E0,3.18763E0,3.5039117E0,4.4688478E0,6.225102E0,5.091012E0],"categories":[],"categories_nodes":[],"categories_segments":[],"categories_sizes":[],"default_left":[0,0,1,0,1,1,0,0,0,0,0,0,0,0,0],"id":63,"left_children":[1,3,5,7,9,11,13,-1,-1,-1,-1,-1,-1,-1,-1],"loss_changes":[1.238566E7,9.68772E5,1.107308E6,8.3955E4,1.70937E5,7.3862E4,9.4588E4,0E0,0E0,0E0,0E0,0E0,0E0,0E0,0E0],"parents":[2147483647,0,0,1,1,2,2,3,3,4,4,5,5,6,6],"right_children":[2,4,6,8,10,12,14,-1,-1,-1,-1,-1,-1,-1,-1],"split_conditions":[6.09642E2,3.66934E2,8.83676E2,2.65657E2,5.54184E2,7.79406E2,2E0,1.1643541E0,1.6220618E0,2.2620516E0,3.18763E0,3.5039117E0,4.4688478E0,6.225102E0,5.091012E0],"split_indices":[4,5,4,4,5,5,2,0,0,0,0,0,0,0,0],"split_type":[0,0,0,0,0,0,0,0,0,0,0,0,0,0,0],"sum_hessian":[5.64E2,3.31E2,2.33E2,2.04E2,1.27E2,9.8E1,1.35E2,8.4E1,1.2E2,8.8E1,3.9E1,5.3E1,4.5E1,4.6E1,8.9E1],"tree_param":{"num_deleted":"0","num_feature":"7","num_nodes":"15","size_leaf_vector":"1"}},{"base_weights":[3.101231E2,1.9576587E2,4.9961533E2,1.601985E2,3.064414E0,5.734593E2,4.3593063E2,1.3748299E0,2.0639915E0,4.858316E0,6.1025686E0,3.783454E0,5.12027E0],"categories":[],"categories_nodes":[],"categories_segments":[],"categories_sizes":[],"default_left":[0,1,0,0,0,0,0,0,0,0,0,0,0],"id":64,"left_children":[1,3,5,7,-1,9,11,-1,-1,-1,-1,-1,-1],"loss_changes":[1.2145632E7,1.344407E6,7.46988E5,2.549805E5,0E0,9.844E3,3.23356E5,0E0,0E0,0E0,0E0,0E0,0E0],"parents":[2147483647,0,0,1,1,2,2,3,3,5,5,6,6],"right_children":[2,4,6,8,-1,10,12,-1,-1,-1,-1,-1,-1],"split_conditions":[6.74091E2,4.62297E2,3E0,3.47168E2,3.064414E0,1.033182E3,1.2E1,1.3748299E0,2.0639915E0,4.858316E0,6.1025686E0,3.783454E0,5.12027E0],"split_indices":[4,5,2,6,0,4,2,0,0,0,0,0,0],"split_type":[0,0,0,0,0,0,0,0,0,0,0,0,0],"sum_hessian":[5.64E2,3.53E2,2.11E2,2.69E2,8.4E1,9.4E1,1.17E2,1.83E2,8.6E1,3.2E1,6.2E1,7E1,4.7E1],"tree_param":{"num_deleted":"0","num_feature":"7","num_nodes":"13","size_leaf_vector":"1"}},{"base_weights":[3.0706857E2,1.8425246E2,4.800082E2,1.4456544E2,2.5788306E2,3.6848654E2,5.2828516E2,1.1476617E0,1.6347973E0,2.2565603E0,3.1266725E0,4.3862915E0,3.3037567E0,6.105508E0,4.9006977E0],"categories":[],"categories_nodes":[],"categories_segments":[],"categories_sizes":[],"default_left":[0,0,1,0,1,0,0,0,0,0,0,0,0,0,0],"id":65,"left_children":[1,3,5,7,9,11,13,-1,-1,-1,-1,-1,-1,-1,-1],"loss_changes":[1.1912032E7,9.32882E5,1.065172E6,1.0411E5,1.324805E5,5.2903E4,2.0694E5,0E0,0E0,0E0,0E0,0E0,0E0,0E0,0E0],"parents":[2147483647,0,0,1,1,2,2,3,3,4,4,5,5,6,6],"right_children":[2,4,6,8,10,12,14,-1,-1,-1,-1,-1,-1,-1,-1],"split_conditions":[6.09642E2,3.76911E2,8.30043E2,2.75679E2,5.54184E2,2E0,2E0,1.1476617E0,1.6347973E0,2.2565603E0,3.1266725E0,4.3862915E0,3.3037567E0,6.105508E0,4.9006977E0],"split_indices":[4,4,4,6,5,1,2,0,0,0,0,0,0,0,0],"split_type":[0,0,0,0,0,0,0,0,0,0,0,0,0,0,0],"sum_hessian":[5.64E2,3.31E2,2.33E2,2.17E2,1.14E2,7.3E1,1.6E2,8.7E1,1.3E2,7.5E1,3.9E1,2.2E1,5.1E1,4.6E1,1.14E2],"tree_param":{"num_deleted":"0","num_feature":"7","num_nodes":"15","size_leaf_vector":"1"}},{"base_weights":[3.040454E2,1.8243454E2,4.7528802E2,1.3970932E2,2.4943637E2,3.9616678E2,5.4346924E2,1.1276329E0,1.5748372E0,2.1907592E0,3.0851648E0,3.4751892E0,4.456158E0,4.653813E0,5.75495E0],"categories":[],"categories_nodes":[],"categories_segments":[],"categories_sizes":[],"default_left":[0,0,1,0,1,1,0,0,0,0,0,0,0,0,0],"id":66,"left_children":[1,3,5,7,9,11,13,-1,-1,-1,-1,-1,-1,-1,-1],"loss_changes":[1.1679396E7,9.15557E5,1.047032E6,8.04265E4,1.620045E5,1.14568E5,3.9776E4,0E0,0E0,0E0,0E0,0E0,0E0,0E0,0E0],"parents":[2147483647,0,0,1,1,2,2,3,3,4,4,5,5,6,6],"right_children":[2,4,6,8,10,12,14,-1,-1,-1,-1,-1,-1,-1,-1],"split_conditions":[6.09642E2,3.66934E2,9.12136E2,2.65657E2,5.49349E2,8.16543E2,9.83374E2,1.1276329E0,1.5748372E0,2.1907592E0,3.0851648E0,3.4751892E0,4.456158E0,4.653813E0,5.75495E0],"split_indices":[4,5,4,4,5,6,6,0,0,0,0,0,0,0,0],"split_type":[0,0,0,0,0,0,0,0,0,0,0,0,0,0,0],"sum_hessian":[5.64E2,3.31E2,2.33E2,2.04E2,1.27E2,1.11E2,1.22E2,8.4E1,1.2E2,8.7E1,4E1,6E1,5.1E1,4E1,8.2E1],"tree_param":{"num_deleted":"0","num_feature":"7","num_nodes":"15","size_leaf_vector":"1"}},{"base_weights":[3.0105154E2,1.9453932E2,4.9297147E2,1.4863704E2,2.8474933E2,6.0509787E0,4.5482187E2,1.2180914E0,1.7625147E0,2.259714E0,3.1171134E0,3.2374892E0,4.730834E0],"categories":[],"categories_nodes":[],"categories_segments":[],"categories_sizes":[],"default_left":[0,0,0,0,0,0,1,0,0,0,0,0,0],"id":67,"left_children":[1,3,5,7,9,-1,11,-1,-1,-1,-1,-1,-1],"loss_changes":[1.1453728E7,1.469085E6,5.84576E5,1.59295E5,1.22904E5,0E0,2.15452E5,0E0,0E0,0E0,0E0,0E0,0E0],"parents":[2147483647,0,0,1,1,2,2,3,3,4,4,6,6],"right_children":[2,4,6,8,10,-1,12,-1,-1,-1,-1,-1,-1],"split_conditions":[7.21355E2,4.08262E2,2E0,3.01992E2,5.26079E2,6.0509787E0,7.89909E2,1.2180914E0,1.7625147E0,2.259714E0,3.1171134E0,3.2374892E0,4.730834E0],"split_indices":[4,4,2,6,4,0,4,0,0,0,0,0,0],"split_type":[0,0,0,0,0,0,0,0,0,0,0,0,0],"sum_hessian":[5.64E2,3.64E2,2E2,2.43E2,1.21E2,4.7E1,1.53E2,1.26E2,1.17E2,4.1E1,8E1,2.1E1,1.32E2],"tree_param":{"num_deleted":"0","num_feature":"7","num_nodes":"13","size_leaf_vector":"1"}},{"base_weights":[2.9808063E2,1.8811516E2,4.802962E2,1.5387656E2,2.946599E0,5.518043E2,4.186558E2,1.2956747E0,1.9390632E0,4.666036E0,5.8767443E0,3.6246274E0,4.9305267E0],"categories":[],"categories_nodes":[],"categories_segments":[],"categories_sizes":[],"default_left":[0,1,0,0,0,0,0,0,0,0,0,0,0],"id":68,"left_children":[1,3,5,7,-1,9,11,-1,-1,-1,-1,-1,-1],"loss_changes":[1.1230792E7,1.24603E6,7.03432E5,2.3761E5,0E0,1.6126E4,3.14598E5,0E0,0E0,0E0,0E0,0E0,0E0],"parents":[2147483647,0,0,1,1,2,2,3,3,5,5,6,6],"right_children":[2,4,6,8,-1,10,12,-1,-1,-1,-1,-1,-1],"split_conditions":[6.74091E2,4.62297E2,3E0,3.22275E2,2.946599E0,1.033182E3,1.2E1,1.2956747E0,1.9390632E0,4.666036E0,5.8767443E0,3.6246274E0,4.9305267E0],"split_indices":[4,5,2,4,0,4,2,0,0,0,0,0,0],"split_type":[0,0,0,0,0,0,0,0,0,0,0,0,0],"sum_hessian":[5.64E2,3.53E2,2.11E2,2.69E2,8.4E1,9.4E1,1.17E2,1.7E2,9.9E1,3.2E1,6.2E1,7E1,4.7E1],"tree_param":{"num_deleted":"0","num_feature":"7","num_nodes":"13","size_leaf_vector":"1"}},{"base_weights":[2.9514456E2,1.7703853E2,4.614525E2,1.3549577E2,2.4218874E2,5.463972E2,4.0051535E2,1.0888466E0,1.5270756E0,2.131517E0,3.0074146E0,4.6207895E0,5.818909E0,3.509393E0,4.882249E0],"categories":[],"categories_nodes":[],"categories_segments":[],"categories_sizes":[],"default_left":[0,0,0,0,1,0,0,0,0,0,0,0,0,0,0],"id":69,"left_children":[1,3,5,7,9,11,13,-1,-1,-1,-1,-1,-1,-1,-1],"loss_changes":[1.101602E7,8.65749E5,9.92408E5,7.726775E4,1.53522E5,1.5434E4,4.37422E5,0E0,0E0,0E0,0E0,0E0,0E0,0E0,0E0],"parents":[2147483647,0,0,1,1,2,2,3,3,4,4,5,5,6,6],"right_children":[2,4,6,8,10,12,14,-1,-1,-1,-1,-1,-1,-1,-1],"split_conditions":[6.09642E2,3.66934E2,3E0,2.72311E2,5.54184E2,1.033182E3,1.2E1,1.0888466E0,1.5270756E0,2.131517E0,3.0074146E0,4.6207895E0,5.818909E0,3.509393E0,4.882249E0],"split_indices":[4,5,2,6,5,4,2,0,0,0,0,0,0,0,0],"split_type":[0,0,0,0,0,0,0,0,0,0,0,0,0,0,0],"sum_hessian":[5.64E2,3.31E2,2.33E2,2.04E2,1.27E2,9.4E1,1.39E2,8.3E1,1.21E2,8.8E1,3.9E1,3.2E1,6.2E1,9.2E1,4.7E1],"tree_param":{"num_deleted":"0","num_feature":"7","num_nodes":"15","size_leaf_vector":"1"}},{"base_weights":[2.9224017E2,1.887937E2,4.786368E2,1.4419846E2,2.764367E2,5.8792176E0,4.4146594E2,1.1807638E0,1.7109088E0,2.1939507E0,3.0260108E0,3.1342187E0,4.5932684E0],"categories":[],"categories_nodes":[],"categories_segments":[],"categories_sizes":[],"default_left":[0,0,0,0,0,0,1,0,0,0,0,0,0],"id":70,"left_children":[1,3,5,7,9,-1,11,-1,-1,-1,-1,-1,-1],"loss_changes":[1.0804008E7,1.386726E6,5.56956E5,1.51205E5,1.1569E5,0E0,2.08232E5,0E0,0E0,0E0,0E0,0E0,0E0],"parents":[2147483647,0,0,1,1,2,2,3,3,4,4,6,6],"right_children":[2,4,6,8,10,-1,12,-1,-1,-1,-1,-1,-1],"split_conditions":[7.21355E2,4.08262E2,2E0,3.01992E2,5.26079E2,5.8792176E0,7.89909E2,1.1807638E0,1.7109088E0,2.1939507E0,3.0260108E0,3.1342187E0,4.5932684E0],"split_indices":[4,4,2,6,4,0,4,0,0,0,0,0,0],"split_type":[0,0,0,0,0,0,0,0,0,0,0,0,0],"sum_hessian":[5.64E2,3.64E2,2E2,2.43E2,1.21E2,4.7E1,1.53E2,1.26E2,1.17E2,4.1E1,8E1,2.1E1,1.32E2],"tree_param":{"num_deleted":"0","num_feature":"7","num_nodes":"13","size_leaf_vector":"1"}},{"base_weights":[2.893562E2,1.7354112E2,4.524385E2,1.3351343E2,2.3875888E2,5.3589276E2,3.9257712E2,1.0687308E0,1.5069824E0,2.0987024E0,2.9490047E0,4.530325E0,5.707895E0,3.437623E0,4.7897716E0],"categories":[],"categories_nodes":[],"categories_segments":[],"categories_sizes":[],"default_left":[0,0,0,0,1,0,0,0,0,0,0,0,0,0,0],"id":71,"left_children":[1,3,5,7,9,11,13,-1,-1,-1,-1,-1,-1,-1,-1],"loss_changes":[1.0592852E7,8.34814E5,9.58616E5,7.911875E4,1.40841E5,1.6112E4,4.2581E5,0E0,0E0,0E0,0E0,0E0,0E0,0E0,0E0],"parents":[2147483647,0,0,1,1,2,2,3,3,4,4,5,5,6,6],"right_children":[2,4,6,8,10,12,14,-1,-1,-1,-1,-1,-1,-1,-1],"split_conditions":[6.09642E2,3.65119E2,3E0,2.65657E2,5.54184E2,1.033182E3,1.2E1,1.0687308E0,1.5069824E0,2.0987024E0,2.9490047E0,4.530325E0,5.707895E0,3.437623E0,4.7897716E0],"split_indices":[4,4,2,4,5,4,2,0,0,0,0,0,0,0,0],"split_type":[0,0,0,0,0,0,0,0,0,0,0,0,0,0,0],"sum_hessian":[5.64E2,3.31E2,2.33E2,2.07E2,1.24E2,9.4E1,1.39E2,8.4E1,1.23E2,8.5E1,3.9E1,3.2E1,6.2E1,9.2E1,4.7E1],"tree_param":{"num_deleted":"0","num_feature":"7","num_nodes":"15","size_leaf_vector":"1"}},{"base_weights":[2.8650882E2,1.8505957E2,4.693072E2,1.4133109E2,2.7099966E2,5.7667413E0,4.327947E2,1.1569622E0,1.6772343E0,2.1516411E0,2.9660573E0,3.069344E0,4.5035963E0],"categories":[],"categories_nodes":[],"categories_segments":[],"categories_sizes":[],"default_left":[0,0,0,0,0,0,1,0,0,0,0,0,0],"id":72,"left_children":[1,3,5,7,9,-1,11,-1,-1,-1,-1,-1,-1],"loss_changes":[1.0390936E7,1.33338E6,5.38384E5,1.45677E5,1.10608E5,0E0,2.02222E5,0E0,0E0,0E0,0E0,0E0,0E0],"parents":[2147483647,0,0,1,1,2,2,3,3,4,4,6,6],"right_children":[2,4,6,8,10,-1,12,-1,-1,-1,-1,-1,-1],"split_conditions":[7.21355E2,4.08262E2,2E0,3.01992E2,5.26079E2,5.7667413E0,7.89909E2,1.1569622E0,1.6772343E0,2.1516411E0,2.9660573E0,3.069344E0,4.5035963E0],"split_indices":[4,4,2,6,4,0,4,0,0,0,0,0,0],"split_type":[0,0,0,0,0,0,0,0,0,0,0,0,0],"sum_hessian":[5.64E2,3.64E2,2E2,2.43E2,1.21E2,4.7E1,1.53E2,1.26E2,1.17E2,4.1E1,8E1,2.1E1,1.32E2],"tree_param":{"num_deleted":"0","num_feature":"7","num_nodes":"13","size_leaf_vector":"1"}},{"base_weights":[2.8368143E2,1.8323076E2,4.6468048E2,1.399294E2,2.683316E2,5.7102757E0,4.2851593E2,1.0962684E0,1.616568E0,2.130637E0,2.9367626E0,3.040046E0,4.4588985E0],"categories":[],"categories_nodes":[],"categories_segments":[],"categories_sizes":[],"default_left":[0,0,0,0,0,0,1,0,0,0,0,0,0],"id":73,"left_children":[1,3,5,7,9,-1,11,-1,-1,-1,-1,-1,-1],"loss_changes":[1.0187388E7,1.307471E6,5.28352E5,1.429265E5,1.0832E5,0E0,1.9759E5,0E0,0E0,0E0,0E0,0E0,0E0],"parents":[2147483647,0,0,1,1,2,2,3,3,4,4,6,6],"right_children":[2,4,6,8,10,-1,12,-1,-1,-1,-1,-1,-1],"split_conditions":[7.21355E2,4.08262E2,2E0,2.7949E2,5.26079E2,5.7102757E0,7.89909E2,1.0962684E0,1.616568E0,2.130637E0,2.9367626E0,3.040046E0,4.4588985E0],"split_indices":[4,4,2,4,4,0,4,0,0,0,0,0,0],"split_type":[0,0,0,0,0,0,0,0,0,0,0,0,0],"sum_hessian":[5.64E2,3.64E2,2E2,2.43E2,1.21E2,4.7E1,1.53E2,1.04E2,1.39E2,4.1E1,8E1,2.1E1,1.32E2],"tree_param":{"num_deleted":"0","num_feature":"7","num_nodes":"13","size_leaf_vector":"1"}},{"base_weights":[2.8088177E2,1.6841382E2,4.392513E2,1.2871959E2,2.3067085E2,5.205895E2,3.8092007E2,1.0331596E0,1.4515553E0,2.0305429E0,2.8635094E0,4.3973017E0,5.54681E0,3.331334E0,4.6557083E0],"categories":[],"categories_nodes":[],"categories_segments":[],"categories_sizes":[],"default_left":[0,0,0,0,1,0,0,0,0,0,0,0,0,0,0],"id":74,"left_children":[1,3,5,7,9,11,13,-1,-1,-1,-1,-1,-1,-1,-1],"loss_changes":[9.989516E6,7.90762E5,9.11928E5,7.059725E4,1.386795E5,1.797E4,4.11226E5,0E0,0E0,0E0,0E0,0E0,0E0,0E0,0E0],"parents":[2147483647,0,0,1,1,2,2,3,3,4,4,5,5,6,6],"right_children":[2,4,6,8,10,12,14,-1,-1,-1,-1,-1,-1,-1,-1],"split_conditions":[6.09642E2,3.66934E2,3E0,2.72311E2,5.54184E2,1.033182E3,1.2E1,1.0331596E0,1.4515553E0,2.0305429E0,2.8635094E0,4.3973017E0,5.54681E0,3.331334E0,4.6557083E0],"split_indices":[4,5,2,6,5,4,2,0,0,0,0,0,0,0,0],"split_type":[0,0,0,0,0,0,0,0,0,0,0,0,0,0,0],"sum_hessian":[5.64E2,3.31E2,2.33E2,2.04E2,1.27E2,9.4E1,1.39E2,8.3E1,1.21E2,8.8E1,3.9E1,3.2E1,6.2E1,9.2E1,4.7E1],"tree_param":{"num_deleted":"0","num_feature":"7","num_nodes":"15","size_leaf_vector":"1"}},{"base_weights":[2.7811774E2,1.7960692E2,4.556219E2,1.3714066E2,2.630673E2,5.601008E0,4.2009842E2,1.1217524E0,1.6284798E0,2.089895E0,2.8785985E0,2.977135E0,4.371839E0],"categories":[],"categories_nodes":[],"categories_segments":[],"categories_sizes":[],"default_left":[0,0,0,0,0,0,1,0,0,0,0,0,0],"id":75,"left_children":[1,3,5,7,9,-1,11,-1,-1,-1,-1,-1,-1],"loss_changes":[9.7978E6,1.257574E6,5.107E5,1.3833E5,1.03409E5,0E0,1.91862E5,0E0,0E0,0E0,0E0,0E0,0E0],"parents":[2147483647,0,0,1,1,2,2,3,3,4,4,6,6],"right_children":[2,4,6,8,10,-1,12,-1,-1,-1,-1,-1,-1],"split_conditions":[7.21355E2,4.08262E2,2E0,3.01992E2,5.26079E2,5.601008E0,7.89909E2,1.1217524E0,1.6284798E0,2.089895E0,2.8785985E0,2.977135E0,4.371839E0],"split_indices":[4,4,2,6,4,0,4,0,0,0,0,0,0],"split_type":[0,0,0,0,0,0,0,0,0,0,0,0,0],"sum_hessian":[5.64E2,3.64E2,2E2,2.43E2,1.21E2,4.7E1,1.53E2,1.26E2,1.17E2,4.1E1,8E1,2.1E1,1.32E2],"tree_param":{"num_deleted":"0","num_feature":"7","num_nodes":"13","size_leaf_vector":"1"}},{"base_weights":[2.7537314E2,1.7366982E2,4.438996E2,1.4194168E2,2.7241015E0,5.105837E2,3.8645135E2,1.2146146E0,1.8362465E0,2.9738314E0,5.191239E0,3.334755E0,4.567604E0],"categories":[],"categories_nodes":[],"categories_segments":[],"categories_sizes":[],"default_left":[0,1,0,0,0,0,0,0,0,0,0,0,0],"id":76,"left_children":[1,3,5,7,-1,9,11,-1,-1,-1,-1,-1,-1],"loss_changes":[9.60684E6,1.070363E6,6.14828E5,2.08189E5,0E0,1.8596E4,2.87194E5,0E0,0E0,0E0,0E0,0E0,0E0],"parents":[2147483647,0,0,1,1,2,2,3,3,5,5,6,6],"right_children":[2,4,6,8,-1,10,12,-1,-1,-1,-1,-1,-1],"split_conditions":[6.74091E2,4.62297E2,3E0,3.47168E2,2.7241015E0,8.7847E2,1.2E1,1.2146146E0,1.8362465E0,2.9738314E0,5.191239E0,3.334755E0,4.567604E0],"split_indices":[4,5,2,6,0,4,2,0,0,0,0,0,0],"split_type":[0,0,0,0,0,0,0,0,0,0,0,0,0],"sum_hessian":[5.64E2,3.53E2,2.11E2,2.69E2,8.4E1,9.4E1,1.17E2,1.83E2,8.6E1,5E0,8.9E1,7E1,4.7E1],"tree_param":{"num_deleted":"0","num_feature":"7","num_nodes":"13","size_leaf_vector":"1"}},{"base_weights":[2.7265808E2,1.6343282E2,4.2646207E2,1.2186803E2,2.1956546E2,5.055638E2,3.6973972E2,9.6013623E-1,1.3516471E0,1.9419534E0,2.7813585E0,4.264221E0,5.3899417E0,3.2315843E0,4.52288E0],"categories":[],"categories_nodes":[],"categories_segments":[],"categories_sizes":[],"default_left":[0,0,0,0,1,0,0,0,0,0,0,0,0,0,0],"id":77,"left_children":[1,3,5,7,9,11,13,-1,-1,-1,-1,-1,-1,-1,-1],"loss_changes":[9.421896E6,7.47844E5,8.63E5,5.33715E4,1.54019E5,2.1506E4,3.92168E5,0E0,0E0,0E0,0E0,0E0,0E0,0E0,0E0],"parents":[2147483647,0,0,1,1,2,2,3,3,4,4,5,5,6,6],"right_children":[2,4,6,8,10,12,14,-1,-1,-1,-1,-1,-1,-1,-1],"split_conditions":[6.09642E2,3.42474E2,3E0,2.55484E2,5.54184E2,1.033182E3,1.2E1,9.6013623E-1,1.3516471E0,1.9419534E0,2.7813585E0,4.264221E0,5.3899417E0,3.2315843E0,4.52288E0],"split_indices":[4,4,2,6,5,4,2,0,0,0,0,0,0,0,0],"split_type":[0,0,0,0,0,0,0,0,0,0,0,0,0,0,0],"sum_hessian":[5.64E2,3.31E2,2.33E2,1.92E2,1.39E2,9.4E1,1.39E2,6.8E1,1.24E2,1E2,3.9E1,3.2E1,6.2E1,9.2E1,4.7E1],"tree_param":{"num_deleted":"0","num_feature":"7","num_nodes":"15","size_leaf_vector":"1"}},{"base_weights":[2.6997476E2,1.743035E2,4.42363E2,1.330478E2,2.5538617E2,5.4434953E0,4.0770248E2,1.0399293E0,1.5388862E0,2.0289774E0,2.7944946E0,2.8827603E0,4.243918E0],"categories":[],"categories_nodes":[],"categories_segments":[],"categories_sizes":[],"default_left":[0,0,0,0,0,0,1,0,0,0,0,0,0],"id":78,"left_children":[1,3,5,7,9,-1,11,-1,-1,-1,-1,-1,-1],"loss_changes":[9.241212E6,1.18699E6,4.88584E5,1.317455E5,9.7391E4,0E0,1.846E5,0E0,0E0,0E0,0E0,0E0,0E0],"parents":[2147483647,0,0,1,1,2,2,3,3,4,4,6,6],"right_children":[2,4,6,8,10,-1,12,-1,-1,-1,-1,-1,-1],"split_conditions":[7.21355E2,4.08262E2,2E0,2.7949E2,5.26079E2,5.4434953E0,7.89909E2,1.0399293E0,1.5388862E0,2.0289774E0,2.7944946E0,2.8827603E0,4.243918E0],"split_indices":[4,4,2,4,4,0,4,0,0,0,0,0,0],"split_type":[0,0,0,0,0,0,0,0,0,0,0,0,0],"sum_hessian":[5.64E2,3.64E2,2E2,2.43E2,1.21E2,4.7E1,1.53E2,1.04E2,1.39E2,4.1E1,8E1,2.1E1,1.32E2],"tree_param":{"num_deleted":"0","num_feature":"7","num_nodes":"13","size_leaf_vector":"1"}},{"base_weights":[2.6731036E2,1.7258075E2,4.3800192E2,1.2845177E2,2.4681195E2,5.3901944E0,4.0367175E2,1.029629E0,1.485138E0,1.9366293E0,2.7390954E0,2.8552432E0,4.201798E0],"categories":[],"categories_nodes":[],"categories_segments":[],"categories_sizes":[],"default_left":[0,0,0,0,0,0,1,0,0,0,0,0,0],"id":79,"left_children":[1,3,5,7,9,-1,11,-1,-1,-1,-1,-1,-1],"loss_changes":[9.060204E6,1.163944E6,4.79468E5,1.028325E5,1.413825E5,0E0,1.8039E5,0E0,0E0,0E0,0E0,0E0,0E0],"parents":[2147483647,0,0,1,1,2,2,3,3,4,4,6,6],"right_children":[2,4,6,8,10,-1,12,-1,-1,-1,-1,-1,-1],"split_conditions":[7.21355E2,3.93374E2,2E0,2.7949E2,4.97257E2,5.3901944E0,7.89909E2,1.029629E0,1.485138E0,1.9366293E0,2.7390954E0,2.8552432E0,4.201798E0],"split_indices":[4,4,2,4,4,0,4,0,0,0,0,0,0],"split_type":[0,0,0,0,0,0,0,0,0,0,0,0,0],"sum_hessian":[5.64E2,3.64E2,2E2,2.3E2,1.34E2,4.7E1,1.53E2,1.04E2,1.26E2,4.8E1,8.6E1,2.1E1,1.32E2],"tree_param":{"num_deleted":"0","num_feature":"7","num_nodes":"13","size_leaf_vector":"1"}},{"base_weights":[2.6467203E2,1.586E2,4.1403625E2,1.2105206E2,2.1749634E2,4.911286E2,3.587662E2,9.5653975E-1,1.3589771E0,1.9142526E0,2.7006705E0,4.1389E0,5.2379117E0,3.131641E0,4.39646E0],"categories":[],"categories_nodes":[],"categories_segments":[],"categories_sizes":[],"default_left":[0,0,0,0,1,0,0,0,0,0,0,0,0,0,0],"id":80,"left_children":[1,3,5,7,9,11,13,-1,-1,-1,-1,-1,-1,-1,-1],"loss_changes":[8.885836E6,7.078685E5,8.20852E5,6.42965E4,1.23736E5,2.2874E4,3.78676E5,0E0,0E0,0E0,0E0,0E0,0E0,0E0,0E0],"parents":[2147483647,0,0,1,1,2,2,3,3,4,4,5,5,6,6],"right_children":[2,4,6,8,10,12,14,-1,-1,-1,-1,-1,-1,-1,-1],"split_conditions":[6.09642E2,3.66934E2,3E0,2.57206E2,5.54184E2,1.033182E3,1.2E1,9.5653975E-1,1.3589771E0,1.9142526E0,2.7006705E0,4.1389E0,5.2379117E0,3.131641E0,4.39646E0],"split_indices":[4,5,2,4,5,4,2,0,0,0,0,0,0,0,0],"split_type":[0,0,0,0,0,0,0,0,0,0,0,0,0,0,0],"sum_hessian":[5.64E2,3.31E2,2.33E2,2.04E2,1.27E2,9.4E1,1.39E2,7.8E1,1.26E2,8.8E1,3.9E1,3.2E1,6.2E1,9.2E1,4.7E1],"tree_param":{"num_deleted":"0","num_feature":"7","num_nodes":"15","size_leaf_vector":"1"}},{"base_weights":[2.6206747E2,1.6374823E2,4.2016782E2,1.2589122E2,2.3525838E2,4.86316E2,3.6521497E2,1.0089599E0,1.4556528E0,1.8992463E0,2.6284304E0,4.098765E0,5.1863647E0,3.1546469E0,4.353411E0],"categories":[],"categories_nodes":[],"categories_segments":[],"categories_sizes":[],"default_left":[0,0,0,0,0,0,0,0,0,0,0,0,0,0,0],"id":81,"left_children":[1,3,5,7,9,11,13,-1,-1,-1,-1,-1,-1,-1,-1],"loss_changes":[8.713736E6,9.17889E5,6.07556E5,9.8909E4,1.001415E5,2.2126E4,2.88298E5,0E0,0E0,0E0,0E0,0E0,0E0,0E0,0E0],"parents":[2147483647,0,0,1,1,2,2,3,3,4,4,5,5,6,6],"right_children":[2,4,6,8,10,12,14,-1,-1,-1,-1,-1,-1,-1,-1],"split_conditions":[6.58629E2,3.93374E2,3E0,2.7949E2,4.97257E2,1.033182E3,1.2E1,1.0089599E0,1.4556528E0,1.8992463E0,2.6284304E0,4.098765E0,5.1863647E0,3.1546469E0,4.353411E0],"split_indices":[4,4,2,4,4,4,2,0,0,0,0,0,0,0,0],"split_type":[0,0,0,0,0,0,0,0,0,0,0,0,0,0,0],"sum_hessian":[5.64E2,3.49E2,2.15E2,2.3E2,1.19E2,9.4E1,1.21E2,1.04E2,1.26E2,4.8E1,7.1E1,3.2E1,6.2E1,7.4E1,4.7E1],"tree_param":{"num_deleted":"0","num_feature":"7","num_nodes":"15","size_leaf_vector":"1"}},{"base_weights":[2.5948892E2,1.6748721E2,4.252657E2,1.27817955E2,2.4545287E2,5.2371674E0,3.9181818E2,1.0425055E0,1.5209967E0,1.9507403E0,2.6854494E0,2.7640953E0,4.079623E0],"categories":[],"categories_nodes":[],"categories_segments":[],"categories_sizes":[],"default_left":[0,0,0,0,0,0,1,0,0,0,0,0,0],"id":82,"left_children":[1,3,5,7,9,-1,11,-1,-1,-1,-1,-1,-1],"loss_changes":[8.546012E6,1.097513E6,4.5668E5,1.237745E5,8.9543E4,0E0,1.74166E5,0E0,0E0,0E0,0E0,0E0,0E0],"parents":[2147483647,0,0,1,1,2,2,3,3,4,4,6,6],"right_children":[2,4,6,8,10,-1,12,-1,-1,-1,-1,-1,-1],"split_conditions":[7.21355E2,4.08262E2,2E0,3.01992E2,5.26079E2,5.2371674E0,7.89909E2,1.0425055E0,1.5209967E0,1.9507403E0,2.6854494E0,2.7640953E0,4.079623E0],"split_indices":[4,4,2,6,4,0,4,0,0,0,0,0,0],"split_type":[0,0,0,0,0,0,0,0,0,0,0,0,0],"sum_hessian":[5.64E2,3.64E2,2E2,2.43E2,1.21E2,4.7E1,1.53E2,1.26E2,1.17E2,4.1E1,8E1,2.1E1,1.32E2],"tree_param":{"num_deleted":"0","num_feature":"7","num_nodes":"13","size_leaf_vector":"1"}},{"base_weights":[2.5692813E2,1.5391945E2,4.0197922E2,1.1455259E2,2.0709006E2,4.7696893E2,3.4822208E2,9.004009E-1,1.2716707E0,1.8317845E0,2.6228957E0,2.7471948E0,4.8515253E0,3.037608E0,4.2711115E0],"categories":[],"categories_nodes":[],"categories_segments":[],"categories_sizes":[],"default_left":[0,0,0,0,1,0,0,0,0,0,0,0,0,0,0],"id":83,"left_children":[1,3,5,7,9,11,13,-1,-1,-1,-1,-1,-1,-1,-1],"loss_changes":[8.380088E6,6.712065E5,7.77216E5,4.822775E4,1.367415E5,2.3956E4,3.61314E5,0E0,0E0,0E0,0E0,0E0,0E0,0E0,0E0],"parents":[2147483647,0,0,1,1,2,2,3,3,4,4,5,5,6,6],"right_children":[2,4,6,8,10,12,14,-1,-1,-1,-1,-1,-1,-1,-1],"split_conditions":[6.09642E2,3.42474E2,3E0,2.55484E2,5.54184E2,8.7847E2,1.2E1,9.004009E-1,1.2716707E0,1.8317845E0,2.6228957E0,2.7471948E0,4.8515253E0,3.037608E0,4.2711115E0],"split_indices":[4,4,2,6,5,4,2,0,0,0,0,0,0,0,0],"split_type":[0,0,0,0,0,0,0,0,0,0,0,0,0,0,0],"sum_hessian":[5.64E2,3.31E2,2.33E2,1.92E2,1.39E2,9.4E1,1.39E2,6.8E1,1.24E2,1E2,3.9E1,5E0,8.9E1,9.2E1,4.7E1],"tree_param":{"num_deleted":"0","num_feature":"7","num_nodes":"15","size_leaf_vector":"1"}},{"base_weights":[2.5439697E2,1.6417554E2,4.1696625E2,1.2214054E2,2.3488599E2,5.138382E0,3.8406482E2,9.38966E-1,1.3855253E0,1.8447282E0,2.6057978E0,2.7074623E0,3.9992154E0],"categories":[],"categories_nodes":[],"categories_segments":[],"categories_sizes":[],"default_left":[0,0,0,0,0,0,1,0,0,0,0,0,0],"id":84,"left_children":[1,3,5,7,9,-1,11,-1,-1,-1,-1,-1,-1],"loss_changes":[8.218532E6,1.056206E6,4.43284E5,9.406775E4,1.267965E5,0E0,1.6844E5,0E0,0E0,0E0,0E0,0E0,0E0],"parents":[2147483647,0,0,1,1,2,2,3,3,4,4,6,6],"right_children":[2,4,6,8,10,-1,12,-1,-1,-1,-1,-1,-1],"split_conditions":[7.21355E2,3.93374E2,2E0,2.75679E2,4.97257E2,5.138382E0,7.89909E2,9.38966E-1,1.3855253E0,1.8447282E0,2.6057978E0,2.7074623E0,3.9992154E0],"split_indices":[4,4,2,6,4,0,4,0,0,0,0,0,0],"split_type":[0,0,0,0,0,0,0,0,0,0,0,0,0],"sum_hessian":[5.64E2,3.64E2,2E2,2.3E2,1.34E2,4.7E1,1.53E2,8.7E1,1.43E2,4.8E1,8.6E1,2.1E1,1.32E2],"tree_param":{"num_deleted":"0","num_feature":"7","num_nodes":"13","size_leaf_vector":"1"}},{"base_weights":[2.5188596E2,1.508747E2,3.9412466E2,1.1224127E2,2.0305594E2,4.6778574E2,3.413252E2,8.822738E-1,1.24599E0,1.7960562E0,2.5719159E0,3.9348288E0,4.992811E0,2.9754412E0,4.1904006E0],"categories":[],"categories_nodes":[],"categories_segments":[],"categories_sizes":[],"default_left":[0,0,0,0,1,0,0,0,0,0,0,0,0,0,0],"id":85,"left_children":[1,3,5,7,9,11,13,-1,-1,-1,-1,-1,-1,-1,-1],"loss_changes":[8.058296E6,6.46501E5,7.5042E5,4.628125E4,1.31537E5,2.5862E4,3.51658E5,0E0,0E0,0E0,0E0,0E0,0E0,0E0,0E0],"parents":[2147483647,0,0,1,1,2,2,3,3,4,4,5,5,6,6],"right_children":[2,4,6,8,10,12,14,-1,-1,-1,-1,-1,-1,-1,-1],"split_conditions":[6.09642E2,3.42474E2,3E0,2.55484E2,5.54184E2,1.033182E3,1.2E1,8.822738E-1,1.24599E0,1.7960562E0,2.5719159E0,3.9348288E0,4.992811E0,2.9754412E0,4.1904006E0],"split_indices":[4,4,2,6,5,4,2,0,0,0,0,0,0,0,0],"split_type":[0,0,0,0,0,0,0,0,0,0,0,0,0,0,0],"sum_hessian":[5.64E2,3.31E2,2.33E2,1.92E2,1.39E2,9.4E1,1.39E2,6.8E1,1.24E2,1E2,3.9E1,3.2E1,6.2E1,9.2E1,4.7E1],"tree_param":{"num_deleted":"0","num_feature":"7","num_nodes":"15","size_leaf_vector":"1"}},{"base_weights":[2.4940709E2,1.6092879E2,4.088358E2,1.19705185E2,2.302749E2,5.040063E0,3.765175E2,9.579939E-1,1.3852725E0,1.8090636E0,2.5543334E0,2.6513114E0,3.9211133E0],"categories":[],"categories_nodes":[],"categories_segments":[],"categories_sizes":[],"default_left":[0,0,0,0,0,0,1,0,0,0,0,0,0],"id":86,"left_children":[1,3,5,7,9,-1,11,-1,-1,-1,-1,-1,-1],"loss_changes":[7.904088E6,1.01586E6,4.28456E5,9.06695E4,1.214655E5,0E0,1.6353E5,0E0,0E0,0E0,0E0,0E0,0E0],"parents":[2147483647,0,0,1,1,2,2,3,3,4,4,6,6],"right_children":[2,4,6,8,10,-1,12,-1,-1,-1,-1,-1,-1],"split_conditions":[7.21355E2,3.93374E2,2E0,2.7949E2,4.97257E2,5.040063E0,7.89909E2,9.579939E-1,1.3852725E0,1.8090636E0,2.5543334E0,2.6513114E0,3.9211133E0],"split_indices":[4,4,2,4,4,0,4,0,0,0,0,0,0],"split_type":[0,0,0,0,0,0,0,0,0,0,0,0,0],"sum_hessian":[5.64E2,3.64E2,2E2,2.3E2,1.34E2,4.7E1,1.53E2,1.04E2,1.26E2,4.8E1,8.6E1,2.1E1,1.32E2],"tree_param":{"num_deleted":"0","num_feature":"7","num_nodes":"13","size_leaf_vector":"1"}},{"base_weights":[2.4694543E2,1.5422609E2,3.9604187E2,1.1910917E2,2.2314175E2,4.5879517E2,3.4393033E2,9.485052E-1,1.3778646E0,1.8690176E0,2.5334728E0,5.706424E0,4.324186E0,2.9634068E0,4.1112394E0],"categories":[],"categories_nodes":[],"categories_segments":[],"categories_sizes":[],"default_left":[0,1,0,0,1,0,0,0,0,0,0,0,0,0,0],"id":87,"left_children":[1,3,5,7,9,11,13,-1,-1,-1,-1,-1,-1,-1,-1],"loss_changes":[7.749552E6,8.20458E5,5.4856E5,9.2953E4,8.0723E4,3.3508E4,2.68289E5,0E0,0E0,0E0,0E0,0E0,0E0,0E0,0E0],"parents":[2147483647,0,0,1,1,2,2,3,3,4,4,5,5,6,6],"right_children":[2,4,6,8,10,12,14,-1,-1,-1,-1,-1,-1,-1,-1],"split_conditions":[6.58629E2,3.95883E2,3E0,2.7949E2,5.41645E2,1.98E3,1.2E1,9.485052E-1,1.3778646E0,1.8690176E0,2.5334728E0,5.706424E0,4.324186E0,2.9634068E0,4.1112394E0],"split_indices":[4,5,2,4,6,3,2,0,0,0,0,0,0,0,0],"split_type":[0,0,0,0,0,0,0,0,0,0,0,0,0,0,0],"sum_hessian":[5.64E2,3.49E2,2.15E2,2.33E2,1.16E2,9.4E1,1.21E2,1.04E2,1.29E2,5.6E1,6E1,1.4E1,8E1,7.4E1,4.7E1],"tree_param":{"num_deleted":"0","num_feature":"7","num_nodes":"15","size_leaf_vector":"1"}},{"base_weights":[2.4451817E2,1.5775566E2,4.0085547E2,1.173163E2,2.2578333E2,4.946356E0,3.6902237E2,9.010349E-1,1.3313165E0,1.8156053E0,2.530237E0,2.5953288E0,3.8435879E0],"categories":[],"categories_nodes":[],"categories_segments":[],"categories_sizes":[],"default_left":[0,0,0,0,0,0,1,0,0,0,0,0,0],"id":88,"left_children":[1,3,5,7,9,-1,11,-1,-1,-1,-1,-1,-1],"loss_changes":[7.600548E6,9.77625E5,4.17516E5,8.7422E4,1.16688E5,0E0,1.5884E5,0E0,0E0,0E0,0E0,0E0,0E0],"parents":[2147483647,0,0,1,1,2,2,3,3,4,4,6,6],"right_children":[2,4,6,8,10,-1,12,-1,-1,-1,-1,-1,-1],"split_conditions":[7.21355E2,3.93374E2,2E0,2.75679E2,5.26079E2,4.946356E0,7.89909E2,9.010349E-1,1.3313165E0,1.8156053E0,2.530237E0,2.5953288E0,3.8435879E0],"split_indices":[4,4,2,6,4,0,4,0,0,0,0,0,0],"split_type":[0,0,0,0,0,0,0,0,0,0,0,0,0],"sum_hessian":[5.64E2,3.64E2,2E2,2.3E2,1.34E2,4.7E1,1.53E2,8.7E1,1.43E2,5.4E1,8E1,2.1E1,1.32E2],"tree_param":{"num_deleted":"0","num_feature":"7","num_nodes":"13","size_leaf_vector":"1"}},{"base_weights":[2.4210478E2,1.4495706E2,3.789037E2,1.09495026E2,1.978579E2,4.4999042E2,3.2795978E2,8.705022E-1,1.2302059E0,1.7444693E0,2.4734194E0,5.612977E0,4.238225E0,2.8551667E0,4.0336084E0],"categories":[],"categories_nodes":[],"categories_segments":[],"categories_sizes":[],"default_left":[0,0,0,0,1,0,0,0,0,0,0,0,0,0,0],"id":89,"left_children":[1,3,5,7,9,11,13,-1,-1,-1,-1,-1,-1,-1,-1],"loss_changes":[7.45376E6,6.01158E5,6.99836E5,5.03105E4,1.0977E5,3.8814E4,3.32869E5,0E0,0E0,0E0,0E0,0E0,0E0,0E0,0E0],"parents":[2147483647,0,0,1,1,2,2,3,3,4,4,5,5,6,6],"right_children":[2,4,6,8,10,12,14,-1,-1,-1,-1,-1,-1,-1,-1],"split_conditions":[6.09642E2,3.62952E2,3E0,2.57206E2,5.54184E2,1.98E3,1.2E1,8.705022E-1,1.2302059E0,1.7444693E0,2.4734194E0,5.612977E0,4.238225E0,2.8551667E0,4.0336084E0],"split_indices":[4,5,2,4,5,3,2,0,0,0,0,0,0,0,0],"split_type":[0,0,0,0,0,0,0,0,0,0,0,0,0,0,0],"sum_hessian":[5.64E2,3.31E2,2.33E2,2E2,1.31E2,9.4E1,1.39E2,7.8E1,1.22E2,9.2E1,3.9E1,1.4E1,8E1,9.2E1,4.7E1],"tree_param":{"num_deleted":"0","num_feature":"7","num_nodes":"15","size_leaf_vector":"1"}},{"base_weights":[2.3972455E2,1.5463678E2,3.930445E2,1.14978134E2,2.2135167E2,4.8544188E0,3.6169308E2,8.8298947E-1,1.3048363E0,1.7395364E0,2.4550283E0,2.5408838E0,3.7677286E0],"categories":[],"categories_nodes":[],"categories_segments":[],"categories_sizes":[],"default_left":[0,0,0,0,0,0,1,0,0,0,0,0,0],"id":90,"left_children":[1,3,5,7,9,-1,11,-1,-1,-1,-1,-1,-1],"loss_changes":[7.310016E6,9.40274E5,4.06672E5,8.4037E4,1.118305E5,0E0,1.54154E5,0E0,0E0,0E0,0E0,0E0,0E0],"parents":[2147483647,0,0,1,1,2,2,3,3,4,4,6,6],"right_children":[2,4,6,8,10,-1,12,-1,-1,-1,-1,-1,-1],"split_conditions":[7.21355E2,3.93374E2,2E0,2.75679E2,4.97257E2,4.8544188E0,7.89909E2,8.8298947E-1,1.3048363E0,1.7395364E0,2.4550283E0,2.5408838E0,3.7677286E0],"split_indices":[4,4,2,6,4,0,4,0,0,0,0,0,0],"split_type":[0,0,0,0,0,0,0,0,0,0,0,0,0],"sum_hessian":[5.64E2,3.64E2,2E2,2.3E2,1.34E2,4.7E1,1.53E2,8.7E1,1.43E2,4.8E1,8.6E1,2.1E1,1.32E2],"tree_param":{"num_deleted":"0","num_feature":"7","num_nodes":"13","size_leaf_vector":"1"}},{"base_weights":[2.3735835E2,1.4208969E2,3.7151154E2,1.0550985E2,1.9150269E2,4.4135437E2,3.214645E2,8.284212E-1,1.1717836E0,1.6939511E0,2.425367E0,5.5211706E0,4.1539392E0,2.7966824E0,3.957476E0],"categories":[],"categories_nodes":[],"categories_segments":[],"categories_sizes":[],"default_left":[0,0,0,0,1,0,0,0,0,0,0,0,0,0,0],"id":91,"left_children":[1,3,5,7,9,11,13,-1,-1,-1,-1,-1,-1,-1,-1],"loss_changes":[7.168244E6,5.798905E5,6.7605E5,4.1341E4,1.168695E5,4.382E4,3.23987E5,0E0,0E0,0E0,0E0,0E0,0E0,0E0,0E0],"parents":[2147483647,0,0,1,1,2,2,3,3,4,4,5,5,6,6],"right_children":[2,4,6,8,10,12,14,-1,-1,-1,-1,-1,-1,-1,-1],"split_conditions":[6.09642E2,3.42474E2,3E0,2.55484E2,5.54184E2,1.98E3,1.2E1,8.284212E-1,1.1717836E0,1.6939511E0,2.425367E0,5.5211706E0,4.1539392E0,2.7966824E0,3.957476E0],"split_indices":[4,4,2,6,5,3,2,0,0,0,0,0,0,0,0],"split_type":[0,0,0,0,0,0,0,0,0,0,0,0,0,0,0],"sum_hessian":[5.64E2,3.31E2,2.33E2,1.92E2,1.39E2,9.4E1,1.39E2,6.8E1,1.24E2,1E2,3.9E1,1.4E1,8E1,9.2E1,4.7E1],"tree_param":{"num_deleted":"0","num_feature":"7","num_nodes":"15","size_leaf_vector":"1"}},{"base_weights":[2.3502469E2,1.5157938E2,3.8538544E2,1.1557131E2,2.2235307E2,4.764218E0,3.5450797E2,9.394618E-1,1.3786639E0,1.7697915E0,2.4313517E0,2.487551E0,3.6933544E0],"categories":[],"categories_nodes":[],"categories_segments":[],"categories_sizes":[],"default_left":[0,0,0,0,0,0,1,0,0,0,0,0,0],"id":92,"left_children":[1,3,5,7,9,-1,11,-1,-1,-1,-1,-1,-1],"loss_changes":[7.030578E6,9.04477E5,3.96112E5,1.046885E5,7.20115E4,0E0,1.49606E5,0E0,0E0,0E0,0E0,0E0,0E0],"parents":[2147483647,0,0,1,1,2,2,3,3,4,4,6,6],"right_children":[2,4,6,8,10,-1,12,-1,-1,-1,-1,-1,-1],"split_conditions":[7.21355E2,4.08262E2,2E0,3.01992E2,5.26079E2,4.764218E0,7.89909E2,9.394618E-1,1.3786639E0,1.7697915E0,2.4313517E0,2.487551E0,3.6933544E0],"split_indices":[4,4,2,6,4,0,4,0,0,0,0,0,0],"split_type":[0,0,0,0,0,0,0,0,0,0,0,0,0],"sum_hessian":[5.64E2,3.64E2,2E2,2.43E2,1.21E2,4.7E1,1.53E2,1.26E2,1.17E2,4.1E1,8E1,2.1E1,1.32E2],"tree_param":{"num_deleted":"0","num_feature":"7","num_nodes":"13","size_leaf_vector":"1"}},{"base_weights":[2.3270535E2,1.4655708E2,3.75459E2,1.1954905E2,2.306231E0,4.3288376E2,3.2604538E2,1.0184742E0,1.5561284E0,5.4309754E0,4.0712957E0,2.793782E0,3.8828127E0],"categories":[],"categories_nodes":[],"categories_segments":[],"categories_sizes":[],"default_left":[0,1,0,0,0,0,0,0,0,0,0,0,0],"id":93,"left_children":[1,3,5,7,-1,9,11,-1,-1,-1,-1,-1,-1],"loss_changes":[6.893334E6,7.761715E5,4.60424E5,1.5651625E5,0E0,4.8544E4,2.34238E5,0E0,0E0,0E0,0E0,0E0,0E0],"parents":[2147483647,0,0,1,1,2,2,3,3,5,5,6,6],"right_children":[2,4,6,8,-1,10,12,-1,-1,-1,-1,-1,-1],"split_conditions":[6.74091E2,4.62297E2,3E0,3.47168E2,2.306231E0,1.98E3,1.2E1,1.0184742E0,1.5561284E0,5.4309754E0,4.0712957E0,2.793782E0,3.8828127E0],"split_indices":[4,5,2,6,0,3,2,0,0,0,0,0,0],"split_type":[0,0,0,0,0,0,0,0,0,0,0,0,0],"sum_hessian":[5.64E2,3.53E2,2.11E2,2.69E2,8.4E1,9.4E1,1.17E2,1.83E2,8.6E1,1.4E1,8E1,7E1,4.7E1],"tree_param":{"num_deleted":"0","num_feature":"7","num_nodes":"13","size_leaf_vector":"1"}},{"base_weights":[2.3041557E2,1.378869E2,3.6071088E2,1.02322556E2,1.8593E2,4.2865497E2,3.1202945E2,8.009614E-1,1.1377295E0,1.6442338E0,2.355859E0,5.380286E0,4.0310855E0,2.7128077E0,3.8447936E0],"categories":[],"categories_nodes":[],"categories_segments":[],"categories_sizes":[],"default_left":[0,0,0,0,1,0,0,0,0,0,0,0,0,0,0],"id":94,"left_children":[1,3,5,7,9,11,13,-1,-1,-1,-1,-1,-1,-1,-1],"loss_changes":[6.761934E6,5.48237E5,6.4023E5,4.0006E4,1.107745E5,4.8554E4,3.09012E5,0E0,0E0,0E0,0E0,0E0,0E0,0E0,0E0],"parents":[2147483647,0,0,1,1,2,2,3,3,4,4,5,5,6,6],"right_children":[2,4,6,8,10,12,14,-1,-1,-1,-1,-1,-1,-1,-1],"split_conditions":[6.09642E2,3.42474E2,3E0,2.55484E2,5.54184E2,1.98E3,1.2E1,8.009614E-1,1.1377295E0,1.6442338E0,2.355859E0,5.380286E0,4.0310855E0,2.7128077E0,3.8447936E0],"split_indices":[4,4,2,6,5,3,2,0,0,0,0,0,0,0,0],"split_type":[0,0,0,0,0,0,0,0,0,0,0,0,0,0,0],"sum_hessian":[5.64E2,3.31E2,2.33E2,1.92E2,1.39E2,9.4E1,1.39E2,6.8E1,1.24E2,1E2,3.9E1,1.4E1,8E1,9.2E1,4.7E1],"tree_param":{"num_deleted":"0","num_feature":"7","num_nodes":"15","size_leaf_vector":"1"}},{"base_weights":[2.2815019E2,1.5077615E2,3.8128174E2,1.195947E2,2.3712814E2,3.2881946E2,4.266414E0,9.980812E-1,1.5627321E0,4.6324778E0,2.2017233E0,8.2764065E-1,3.3061385E0],"categories":[],"categories_nodes":[],"categories_segments":[],"categories_sizes":[],"default_left":[1,0,0,0,0,0,0,0,0,0,0,0,0],"id":95,"left_children":[1,3,5,7,9,11,-1,-1,-1,-1,-1,-1,-1],"loss_changes":[6.63686E6,9.86744E5,3.09468E5,1.8688475E5,2.77575E5,1.3258E4,0E0,0E0,0E0,0E0,0E0,0E0,0E0],"parents":[2147483647,0,0,1,1,2,2,3,3,4,4,5,5],"right_children":[2,4,6,8,10,12,-1,-1,-1,-1,-1,-1,-1],"split_conditions":[7.21355E2,4.97257E2,9.83374E2,3.47168E2,2E0,1.977E3,4.266414E0,9.980812E-1,1.5627321E0,4.6324778E0,2.2017233E0,8.2764065E-1,3.3061385E0],"split_indices":[4,4,6,6,1,3,0,0,0,0,0,0,0],"split_type":[0,0,0,0,0,0,0,0,0,0,0,0,0],"sum_hessian":[5.64E2,3.76E2,1.88E2,2.78E2,9.8E1,